0
0.019251010528522433
-0.3336959594246179
-0.025617118685778626
-0.20538279140484134
-0.11612835713781548
-0.12580734962139176
-0.3466461507775516
0.053113166670407566
-0.3624697731146141
-0.2754625575961516
-0.13621191524468207
-0.0008880938078631064
0.14913102360675645
-0.16028673866256402
0.11530143368952384
-0.12899308150111358
-0.06874647020405068
-0.0067386698769028594
-0.09051892893280099
-0.26281118225216155
-0.09651574569148051
0.019410133706358485
0.03940570603652695
-0.10580996710757092
-0.134934042334953
-0.059195659629168
-0.12263711453991585
-0.4168780015286299
-0.12286942647095572
-0.05286116613871142
-0.14445803705529178
-0.03114767072064111
-0.18384798775404154
0.006202925954802671
-0.032393090394974185
0.05565899788249907
-0.22514793780430623
-0.33799653147953923
-0.29717531751458004
-0.38694698296046925
0.15475945449348813
-0.058506141626256065
0.042664225580695665
0.08401619758713012
-0.1587197863755361
-0.08523085777197195
-0.2701353156884076
0.027720114140879805
0.022793038364278338
-0.2845482070026552
-0.09824562805882515
-0.08144801968644876
0.30726271166020086
-0.20067913098830467
-0.19962839752272588
-0.09945173717734834
-0.1971022728021618
-0.22952846049756814
-0.20171998168437916
0.07346498704626267
-0.03370212213152948
-0.04297620319188518
-0.06033314115067374
-0.11471057228499779
-0.13852735832706095
-0.059963560978423584
0.08103869680268556
0.1401905496039655
-0.26037577139359597
-0.31302965195188676
-0.22345320684836473
-0.0760184655098716
-0.22928289034333893
-0.20265160132614585
-0.2008580479681065
0.08192512404581019
0.11826088934515917
0.15909153984706587
-0.03524874083313084
0.15196366282451002
0.02358495188236909
-0.021627041678246913
0.12340723608584107
-0.15849858427032276
0.006565943383368375
0.03346015341975406
0.0003071350443384025
-0.041883753518833416
-0.027043430581420013
0.3294668965318558
0.0325463470612843
-0.030736372239165415
0.04083110779284851
-0.16150171054926143
-0.0534738029959868
0.18092420196236025
-0.14209310203386707
-0.018532967316485065
0.10489512516400831
0.04140464837213546
0.001270238980495831
-0.17819469859025017
0.20795465949436415
0.0011746164045852983
-0.18383776471455046
0.19683117530750951
-0.02796583670512419
0.09909913799029285
0.0845581415676976
-0.21343379043269958
0.07554455575300861
0.054412248346912974
-0.03365983672845307
-0.21454116740490836
0.08350060875651279
-0.08048266712693189
-0.15894987430948324
-0.12998308315481483
-0.2727048236244937
-0.013464705175349853
-0.02805994583696829
0.020415888990860345
-0.22506193935000177
-0.1413552290305443
-0.16013588094972883
-0.21693883448265472
0.02386399812578912
0.018269947117617858
-0.03739394325933632
-0.053624860901667314
-0.05337364726407708
-0.026363843545113008
0.3110548854165536
-0.05672602266388303
-0.11391710625432296
-0.052890847854274885
0.14371986335825135
-0.09504385200836339
0.0036796952194668117
-0.02929751919253468
0.006212236939925987
0.05433445093006795
-0.006972435415445487
-0.25685431947208437
0.06133413934098056
0.018290025632647793
-0.010919401068524818
0.0024337058988466984
0.033804730622530435
-0.08623432350972081
-0.11829815514953239
0.08306894728173568
0.07123887511659378
0.05633501251807628
-0.17602690679281985
0.49694294014854723
0.03579774804761705
-0.11731994926595823
-0.010009861752889206
-0.03739290230460222
0.2199646863382672
-0.11681704435728608
-0.17383185995916112
0.09414928424268885
0.09527104172175063
-0.0717530942464371
-0.04667614215285738
-0.11974090041921553
0.07263675014936957
0.10334954364591446
-0.0748160554196436
-0.08209983530556296
-0.09814131326171475
-0.31371223801379966
-0.4941640792176364
-0.5072642592132012
-0.13093234878432103
-0.321516708726441
-0.41981544489138334
0.16839482584659435
-0.059486173045636866
-0.598586233462675
-0.39559963499793355
-0.07590007168315674
0.38001866915996624
-0.3341616791219959
-0.4870895683502846
0.023590616999797386
-0.011229286035869498
-0.002695533771690953
-0.2143496793999115
-0.2000466101012695
-0.041035216115465636
-0.11715303761010527
-0.24377381816570307
-0.004193999538727878
-0.14926846485977596
-0.13916658740996804
-0.12250560167225087
-0.2684167764863975
-0.0729381645694202
-0.19190450464280034
0.08416722405830639
-0.025191338635749697
-0.08265708389951613
0.05646855571132155
-0.09961359319127328
0.015837048966578587
-0.040833405601708304
0.06433741131696835
-0.07777652806417275
0.18693846175988899
-0.041293860204829766
-0.1213883255257856
-0.08541815083028052
-0.04027364691179488
0.09261191811815524
-0.08425709093995212
0.17807854684436208
0.10558250142377272
-0.00314518163020018
-0.06659901178473346
0.06363307709978355
0.11905533190112318
0.05207011853732294
-0.061608096076715115
-0.38907447488785024
-0.19217029498730184
-0.1776203242745305
-0.1085277623567166
-0.07705602840944552
-0.15153881467399768
0.11199034243998013
-0.19973639759545672
-0.027752560707415642
-0.008919310122464403
-0.011435976043680266
-0.11556661107495232
0.03677421206112496
-0.1484143264922822
0.11626321470639535
-0.05805912188729647
-0.25563214429207587
0.05357087337839439
-0.00702941419689476
0.24422554218559508
-0.1266780292445274
0.0883760570116071
-0.1756053329913989
-0.07038361644677488
-0.11995796540555895
0.039842636069468765
-0.3227996737591415
-0.058665739228016184
-0.42234450892277225
-0.3935335936125854
-0.0616397053788892
-0.3599476003004117
-0.1789605604418104
-0.17511562322635266
-0.10742416322597534
-0.05083477227994056
-0.4276879569199326
0.039989255640968
-0.2577632333574921
-0.13788933974900858
-0.4470658271880862
0.06896845251451517
-0.1370580958954945
0.10420228477140865
-0.1684239861382792
0.28731145930577245
-0.25891214338476215
0.018822309681749687
0.004700841389625743
0.23816668691406312
0.011554241986570556
-0.15224211735982826
-0.07850700785346615
-0.0495359162208884
-0.14913887265433398
-0.1010285176739398
-0.07256631778511756
-0.21310173430851787
0.22592603152681398
-0.045041647152150185
-0.09488489427081541
0.06942690400316241
-0.24486974674162115
-0.07715055427190981
0.050922497185824124
-0.11280024892779676
-0.12079615657734255
-0.02766185357545506
-0.1883358541403169
-0.05953059721292594
-0.22322078914279728
-0.12661472736479346
0.010233875988610391
-0.23108333544355417
-0.04110354074654336
0.3496439214619949
-0.20644554639204296
-0.06740598105972301
0.021128117664899953
0.03945884648580933
0.5021971864991529
-0.22925043726937475
0.19776664735125976
0.1467732912110835
0.018620319313915817
-0.5151792834943879
-0.15790459682830135
-0.09773531595001173
-0.09139168864462986
-0.11949084651412441
-0.11926391060164908
-0.0622028038026972
-0.18373984402150473
0.07336349589886014
-0.26443959688992386
-0.3426583608615066
-0.08674630094058766
-0.03236279559942438
-0.14278839977499033
-0.37515116591321435
0.030615162326194253
-0.02433802055076141
0.16034115659077908
-0.015538790462508336
-0.022095015085836132
-0.3195849061577561
0.14157981704651287
0.06051550157758998
-0.3022987928618944
0.15288396972532617
-0.030755783061409997
-0.1515017293179617
-0.05301248368892386
-0.012611353433612915
-0.1786721947414489
0.10810376255560365
-0.07485975558908545
-0.11623521304106219
0.04597215230713083
0.09105695921752743
-0.1100123850984386
-0.025502891224089407
0.04781450110081526
-0.009754236029093553
-0.13461590580166352
-0.03454254883721858
0.15547811054558344
-0.11898577192789679
-0.024208991941472403
0.014391991585731562
0.2482091648328257
0.25837042401169635
0.09922615651550884
-0.059789095896765655
0.43932105930572485
-0.0273501217113567
0.18465038407980716
-0.07309152233242941
0.0001471238800224391
-0.24093966522787502
-0.16550769028804513
-0.07806829947276091
-0.3898457881256598
-0.0135963840039998
-0.46337085081834667
-0.035308641991613106
-0.12075770592221023
-0.3614268639064939
-0.042294926739747926
0.026427203517121273
-0.10644538102528454
-0.2405419180173259
-0.04781171622257036
-0.0511718021378741
-0.10624446400472665
-0.09317689278757238
-0.2845327460551585
-0.03861024004070703
-0.3482178084501855
-0.4394659602898273
0.016100430650489626
-0.0733491745877793
0.04955024002381243
-0.06611131019854516
0.18539770645566508
0.11218196522359523
-0.39539700961296415
0.13626225411964213
0.10450868094827115
-0.09365319069544613
-0.08043143939988498
-0.11190018210954553
-0.11996575784280027
-0.06017784306292281
-0.2390075022810106
0.024305617249141907
0.12521315133054156
0.11826406020327565
0.1293254361212732
-0.09047232951831503
0.295965230565921
-0.28605693576928637
0.1678538147035979
-0.020237418194583606
-0.051785190326751836
-0.044193115305453556
-0.1677304680387363
-0.21226892489222787
0.02532055418861549
-0.06921532660908117
-0.1435080335005886
-0.09240419754042462
-0.1978463598243281
0.11830704026132051
-0.14299947382294934
0.050153895090562214
-0.5847317692743846
-0.37740386601779474
-0.5158924578542546
-0.23439340323974225
-0.13714106100094622
0.19978275355285682
-0.22828091563716307
-0.10664061688230214
-0.2621178697488863
-0.012301562082124027
0.10108882147320068
-0.03466130001795045
-0.09279716243130177
-0.05369659156265907
-0.028824217603456773
-0.20573180560660684
0.06409829995698635
0.10714371999218343
-0.10672917446374341
0.07553664987459172
0.4505215441423426
0.11230952061850516
0.23696588596036453
-0.1716811194801677
0.11409057879951126
0.040626882699724164
0.1334213584044168
0.00841982629078696
0.03864330379993532
0.043442166189676334
0.15981995117049735
-0.11130227307969874
0.01821208161152435
-0.08988441383834632
-0.15783530898808298
0.031472252374959715
0.03180317804483198
-0.21519165176324745
-0.0296123937226473
-0.14162773005688098
-0.015008602522882108
-0.03154032055875014
-0.04311956446667029
-0.07852819638022877
-0.05792180633387473
0.05431949341841272
-0.09281042812006075
-0.29929733052665425
0.006480117581330215
-0.05444745814799119
-0.00825427103218578
-0.05232484922419129
-0.050753505414349
-0.07158482546244603
-0.5865567135720167
0.002979988458822739
0.14908222223471454
-0.05949939309806527
-0.11594941220550789
0.1122543130989681
-0.03227653899858849
0.0122352552329035
-0.049318772856793085
0.013088556343601808
-0.1062963045196767
0.10412955732142132
-0.15396498193977146
0.2191862507002697
-0.24585874339798014
-0.004467498766205292
-0.08322631076388896
-0.43741702364771273
0.07808199363902905
0.004335930152533662
-0.14965131307542986
0.07695385431350074
0.11188770350016275
-0.08595921696129648
0.014971535607568339
0.21743524127018557
-0.10464240293168608
-0.21673303984407746
-0.9131161989261206
-0.37533890256249985
-0.07225854169585294
-0.306563511543723
-0.026125806357842195
-0.2415335366733187
0.4183551168851237
-0.3228347856904462
0.1025355420851614
0.31799580381329956
-0.2008523289482773
0.05554176360237208
-0.016562205932783534
0.5571904137781042
0.061715581128841186
-0.39843565102184303
-0.22188964117431095
-0.03165185599633572
-0.185919484026195
-0.0035449443125459127
-0.1875790148790682
-0.16744121406380885
-0.1702592556189116
-0.020607921971239063
-0.1411680973171287
-0.2269484160719993
-0.10475409375292837
0.020149858929241645
-0.10445200109239546
-0.4227717703720719
-0.07879504083652512
0.09869028937962225
0.057482535913643475
0.050439374235255664
0.05928118386867109
-0.1965532473081049
-0.15212156840073185
-0.08298236140796417
-0.14331207446784885
0.12839288113727446
0.07429904263385925
0.050949701178131225
0.21486623729404958
-0.1340641279006759
-0.18220230572577611
-0.06997584719361057
-0.1011346705161546
-0.15354802266230966
-0.15677560492609224
0.14696827527366962
0.10491023560729411
-0.1709064642941853
-0.1067670538319168
0.008634015955937031
-0.04622359719284074
-0.07721389447501441
-0.20504541275034185
-0.1521695288764831
-0.2602561105214673
-0.05552343848055278
-0.0872307756307606
-0.13757601458628185
0.013560254879643904
-0.25389852392634543
0.008793686238752747
-0.025688212929270458
-0.11713592201781488
-0.17289154744216917
-0.03472465275417702
-0.0791166214088973
-0.13371244262861037
0.3343946223638368
-0.018965960096369666
-0.08391327083079307
-0.10272711768142724
-0.14220288741895162
-0.11402157209960657
-0.5396402395987956
0.03405325463069467
0.021299016761155143
0.24605483613400392
0.08465051139643948
0.7633784777009288
-0.04206081378010187
-0.1549474838390598
-0.006126058543496064
0.013017323792570637
-0.06652886196506613
-0.11624035884762512
0.22881855400394405
-0.10065706931729405
-0.2122080848418877
-0.031033125585761108
0.05314993027205574
0.275426693650563
0.13388631703032006
-0.1551046338955597
-0.0037271602895304497
0.48010354196968913
-0.568281801496917
-0.08863390205301146
0.04427552599167119
0.06166698430116278
-0.0689344973661452
-0.1252454767970682
-0.026155254428210303
-0.14680474441520297
-0.15405128444075253
-0.04293314487474426
-0.1875743486884919
-0.04863051108331277
0.08738349914560475
0.1369200386145475
0.5239843950438466
-0.026978284260476777
-0.19376712463178705
-0.19373660382656036
0.17194678206267158
-0.10659039250366446
0.03585249953270072
-0.19742182247353485
-0.23408865012196986
0.05802661913979959
0.4529011293643656
-0.08802953670603181
0.1078201127287409
0.005930408485612092
-0.13522210453743888
-0.0036881219866923428
-0.0815262797799385
-0.2857728301224151
-0.028537942393542237
-0.49957550140828605
-0.22594668139314625
-0.3596342908815684
-0.23646979955405809
-0.055306171897723376
0.014053587513341652
-0.30548032241076944
-0.14145121315787426
-0.118703099962872
-0.07165698716827287
0.20705303838224368
-0.10743637714748637
-0.0429226190936245
-0.3346769840853331
-0.08747714550314527
-0.5155860569931724
-0.03323997581272152
0.057310109209133875
-0.03528245650743152
-0.13665294231796324
-0.23248395447955203
0.046667701687933834
0.019740881504254577
-0.03275802834983442
0.17594411079342606
-0.7909563413310701
-0.22755691605682649
-0.047607499044263105
-0.15961662439240712
-0.11720125696728385
-0.36426382433495447
-0.19447304377568267
-0.02886854624605899
-0.05997996491589404
-0.218770698168399
-0.02859675973665646
-0.16331239072907813
-0.3139876924722008
-0.131737396086861
0.013052898807497371
0.6726408382832608
-0.08761224705905199
-0.24936590326459812
0.028606179412024552
0.3508815122098304
0.03296781555734925
-0.29156603809217646
-0.5030759632689225
-0.2502462913800667
-0.12495645584751408
-0.13206386759138677
0.21861281004244226
-0.18078142790492047
-0.053620431284921506
-0.07178954471995148
-0.025265300711863854
0.21511954984645712
-0.011228250950460206
0.17101514766506296
-0.07186479261967439
0.045344661907595986
0.10900122081196009
-0.28222135462860265
-0.02319630924310989
0.005249361875345927
-0.15468847121114154
-0.25731032027253303
0.003419339814204481
-0.4088112832037949
-0.4068419908030141
0.028123843346953625
-0.13813447838916326
0.016264610268931293
-0.06950295939611933
0.4728941696952134
0.7231381143312835
0.9645696548437857
0.34234747765834944
-0.564588337001784
0.08810447469083195
-0.43561442470216066
-0.1404325395854953
-0.07376188456849245
-0.21777123197415285
-0.06549929937925096
-0.10912608485582609
-0.1276459256562785
0.5030809564185208
-0.0758404233597447
-0.18976827586567802
-0.1635212981766173
-0.3278597964772501
0.0180475170452518
-0.21544929162475043
0.04532042389229508
0.004069930759343303
-0.056272598142241725
-0.01337585827140715
-0.0901133020417555
3.1496239285780248
-0.0004983610268001016
-0.06274910363450266
-0.13315099045023726
-0.08371354625224586
-0.03186031865805562
-0.012960386155472535
0.22338949613337353
-0.10681121179590064
0.36853432115382867
-0.07611219893532722
0.09822275107667097
-0.25135877027342685
-0.06839174805906215
2.6517719743732524
0.8433194080516463
0.04751476348587255
-0.08983528752231783
-0.27340464969741846
-0.3239388278230822
-0.08268488525981733
-0.030330053397396025
0.10920222853812345
-0.17784563570649023
0.2877560938438562
-0.18182596609928636
-0.17093955184771184
-0.08402812889349827
-0.05576950355741212
-0.005194638010656603
0.16324611442632767
0.1087914013635511
0.0010559143601207627
-0.042753752172797345
0.055295754654827195
-0.0816886355704296
-0.008579734663747635
-0.065377081816648
-0.12449532537913091
-0.015762730602820806
0.09079447906950759
-0.006323817452071539
0.4498740865706376
0.2760759354541099
0.0527593772700025
-0.04470698878336622
0.004128699613795155
0.37725107028204186
-0.06668217498390028
-0.0034183253222030497
0.05634600670800677
0.43266314944964185
0.19957939805302777
0.030205547123411138
-0.017076799389646246
-0.021015526692843702
0.1956468535079476
-0.09717909479493915
-0.15966026992588717
-0.09771686115385078
-0.12348944578983649
-0.18790597518617919
-0.005176410381082921
0.03810329351023382
0.02738509129104579
0.14176887809203884
-0.10457248355898947
0.08879698986411413
-0.07013928029128323
0.331560611684192
0.12165696025002569
0.15568865403932514
0.09465854417871779
0.24278200933618285
0.10377561341254168
-0.009375745523961119
-0.019189808152063385
-0.15799799963646027
0.033351976836116605
-0.10908681747297133
-0.10100521755256667
-0.14120305299656385
-0.05181803676469803
0.006340233850178541
-0.005547472147342379
-0.3605478951621475
-0.16969510318115155
0.03419994997179203
-0.1286214244762819
0.1757597058292152
0.023197718706836328
-0.1965232851534264
-0.10161599957497686
0.22600369634268924
-0.2730449859936212
-0.11460129773568066
0.30208185802428006
-0.09288560132562967
-0.05729452889738145
-0.07157123187015768
-0.02105705100189518
0.15900122505526193
0.22343586769999424
0.020888767554239324
0.08942161045705975
-0.32352619350483275
-0.13721388565383336
-0.07621444636083546
-0.03688086264866451
0.06037100142062127
0.06021985776167193
0.06007035359950616
-0.12532074340017538
0.14078691595882067
0.324268468577605
-0.14282566137330474
-0.23831270294770593
-0.15802754096551555
0.016938421661290625
-0.04728309426682421
-0.15744404212750832
1.0768419853042643
0.17768980949734406
0.04880781565830528
-0.005872061235644519
-0.17283909261004998
-0.16448066355728577
0.24885530610824216
-0.1917204059029797
0.40002321028723686
-0.18206638740410905
-0.23011897892382183
0.20842485514000195
0.17515422504600234
0.08283228843800042
-0.7999798211249125
-0.06816057865673744
-0.21352915005544576
-0.11974488682646274
-0.03763132153344546
0.016536132242162997
0.41052552410609927
-0.0023688125958720757
-0.00797090068511709
0.14692834212408687
-0.08732475027936817
0.11191853147076486
-0.10636625245647392
1.6561069350688806
0.7674039503426304
-0.05743243109554816
-0.042081326160327205
-0.2798481889183369
-0.09485369028091588
0.007967134331886313
-0.0035208905522936852
-0.332290927682817
-0.23095431880500944
-0.22214320204983495
-0.15148990463841155
0.06470040307612604
-0.17257458023553407
0.00801339818238187
-0.15057465543096862
0.15431704106594174
0.17055004526197545
0.1426559307258971
-0.04838633724840755
-0.0037578753352890295
0.19604329094982867
-0.15774858130612487
-0.08811132222669736
0.05026575455636828
0.23154098089780525
-0.06726805384135615
-0.17851178728626035
-0.008271066323114076
-0.08327964822577621
0.13320077528044155
0.22987219621901236
-0.10630660947679384
0.010501176318450142
0.05302399965814307
-0.0562103878894596
0.03248098086628637
-0.11617286390919603
-0.3498320480409752
-0.16656646609730547
-0.03713397164513583
-0.0844790132458809
0.13980722510224655
-0.10582230054240539
0.28198004425943035
-0.19059966666915124
0.12100732803661264
-0.020367203837813798
0.07605831682722247
0.01572203482147315
-0.13604140726311106
0.012385127146561266
-0.005406043161523636
-0.14544445866872502
-0.7302938893550165
0.29272034186684
-0.10327372226785987
-0.38087165073945844
0.04835589018903977
-0.25076791688766303
0.285194125605888
0.033419336332510284
0.10070665287730501
0.0438435281962696
0.036947460571623895
0.5113269493821521
-0.0343913343716309
0.2850857641358638
0.18276289770445217
0.3986134462194401
0.018950889031078364
-0.043963757105593096
0.07857987268116942
0.14330331582042316
0.18232513253225816
-0.12886605372505275
0.043217034620158266
-0.3470350725948636
0.19364410227058942
-0.1620333449853287
0.12989603997569546
-0.06948511661041887
-0.3006577717216046
-0.25058453923014407
0.16155843252516724
-0.12628592323172416
-0.25641546580782587
2.793323766738817
0.7016282076419522
0.3789818992540208
0.18575134781714828
-0.24970112767525263
0.08014730584098491
-0.10466406364824257
0.47887825044931304
0.23344044251771484
0.5864023218069997
0.07035341700706176
-0.0867855075272646
-0.02879953843804512
0.009946341549569295
0.01544322490806211
-0.11815178737517346
-0.021570534704140245
0.021129209159404676
-0.03613968603893093
0.27112732162409503
0.05932037591875892
0.09538399035541699
-0.08956822638904367
-0.03419427782539707
-0.003933933222326904
-0.17207056167586052
0.04480860006613017
0.011075556014928456
0.05707485841908842
0.5572306240089887
1.0767480229955395
0.4489465899771301
-0.030899989680776795
-0.05230696104823941
-0.35284213062561015
-0.27219386603376894
-0.003957988544673481
-0.03523361342934608
0.1887618373548135
0.027590445562589924
0.07723151784372537
0.008355143379467224
-0.07768634211428434
-0.0392596922093909
-0.21182356630413637
0.37261073477104545
-0.12678559342767093
-0.06519378124809479
0.009019809553961537
0.0723670019409461
0.17809075228772672
0.13176447316258683
0.302068345109341
-0.2102262044321288
-0.5798512150679728
-0.0769965844898052
-0.23247848275792998
-0.09379722214979751
-0.050286867761228295
0.09576291829078347
-0.03413761084759986
0.1946386360435646
-0.25192640740403754
-0.02688503609241157
-0.06523658727402921
-0.21342131734040254
0.16507855704527757
-0.10419354067696067
-0.26098656918975865
0.15305437399586289
0.18036397134840523
-0.24528084614272902
0.1636791913433321
0.02583037361102078
0.042626446980318845
-0.08088475546179058
-0.02795547717852641
-0.07911474359641332
0.09082645909358655
0.23092002996211441
-0.10480514450670395
-0.45056097938846723
-0.12868838627887771
0.13899309288273543
0.28497564415022647
0.06840601748142583
0.04029625771941742
0.5725414762196809
0.23658822163638857
-0.08385627137713209
-0.10643870110193171
-0.04768862336807839
0.22793192655858965
-0.09580469395510031
-0.14276632654000268
-0.11562550304463176
-0.28955936544900324
0.056052867331653856
0.04052896429373307
-0.09128175177307381
0.3546808363981551
0.09501987018883486
0.004539485111295721
0.0030168069744788036
-0.23285043793261015
-0.1280376104222926
-0.014154975966291736
0.10330886903517959
-0.08102489661314251
0.14340606950860782
-0.03735280406141732
-0.20093303878051277
-0.02721582426367908
0.008329685696988692
0.131150118775681
0.29217971488665784
0.09059006669420638
0.04656632397535843
-0.10214831663915735
-0.05866868649343828
-0.0035169525004524085
-0.35725726060534296
-0.13779318795191048
0.18524246721238527
-0.2029270828269851
0.04502804887190351
0.03453314953583829
-0.1127587540629154
-0.08172804375491523
0.44686344901389846
-0.25660375503925453
0.07477628925854009
0.08104519961114887
-0.07825102088150071
-0.0921868018596493
-0.19619385516016993
-0.03062408558581512
0.02124493296073977
-0.35483790946667837
-0.006433416941662436
-0.3406207152651378
-0.1380134254338566
-0.17410602216193174
0.002612748682230719
0.2608288845923225
0.04118658856573083
0.06612541731391007
0.3414156215952367
2.959063282478395
0.7113975168257276
0.2377740225169228
0.0775457867344407
0.8967767715255975
-0.16620450435087916
-0.017889871102784945
0.13709407194905632
0.2470449674933006
0.3354950241986737
0.1958670902835079
-0.08011559690723287
-0.0356650096562244
-0.046188313669993555
0.23503881939297053
-0.08317266815604117
0.8489548917734124
-0.13359474533935695
-0.16634885311031916
0.0993836581170495
-0.025455195366750873
0.016687103171401835
-0.07536579848901677
-0.0707828769673987
-0.1103940519698108
-0.0343800348029294
-0.15703566240583147
0.013016601998099021
-0.20540890526527178
0.19967637141106204
0.042257656422670216
0.05977646515243722
-0.056780480436913444
-0.04642081750083428
-0.10554727329662328
-0.1332670235135861
-0.06770037223976787
0.10397722618950733
-0.24980705815517634
-0.0821390138480031
-0.18330458195633123
0.23068394257884262
0.3185012272097106
-0.03718902155060228
-0.1340588822223543
-0.08566305390681184
0.029063651650089607
-0.25743905530054423
0.19275146854266742
-0.2503640378723556
-0.14108528495756156
-0.12762248295429682
-0.08461907346717154
-0.14207955211696283
-0.1969376570037663
0.08756489948574338
-0.18021972734750863
-0.0034354745459461234
-0.050294909834384054
0.20066616559616504
-0.30978837571755036
-0.3611691900247056
0.04239733152738577
-0.04683415447998427
0.03601223309882811
-0.058099215684163326
-0.027874441565428464
-0.142438254536726
0.030456860046125273
-0.13087916395458984
-0.12084566876938388
-0.2735755476325175
-0.06270300945444973
-0.0028105781645114624
-0.03164437153512401
-0.23132150022760564
-0.7175489658820344
-0.2796977745923536
0.04003589294965362
-0.015418555712988308
-0.04070161861660701
-0.13213163019865592
-0.03849196747368907
-0.12834407002731335
-0.1094685472159654
-0.056444023501213594
0.08924343995559783
-0.2119487438917588
-0.10865447154570412
-0.7557502029877996
0.12991786819155512
-0.022863285811347306
-0.0067604086263913015
-0.16244239595880394
-0.022673832009713797
-0.18190488393031629
0.2562747104499264
-0.18579763928051052
-0.1996447553335108
-0.09616343392465762
0.0060919828272714095
-0.17405769963515827
0.013017228115259924
0.23875962524256275
-0.11162524392952897
0.10880822516405189
-0.1548620245486057
0.019707370632319504
-0.16413896466672942
-0.23311060810525033
-0.03636854044689932
-0.036263420778578775
-0.05837916097802962
0.25353907078782834
-0.24715174022206934
0.2626145018073664
0.24984306031054557
0.07957777513682786
-0.1594887268625383
-0.32430709901577703
0.16903118797772787
-0.39125575656387696
-0.1287478413576597
-0.15155714147424312
-0.05853145488934993
-0.18571358707327987
0.06453552616844828
0.08182051349352913
-0.21740568387673895
-0.015695998730421344
-0.10851243633188763
0.4785621753999413
0.15177004047393894
0.04359329125379242
-0.10034611938017406
0.042958795804425944
0.0931234678261661
-0.04297123236578108
0.03237552924300767
-0.12035084910376004
0.04577479010789671
-0.01968361455884336
-0.2553291143486714
-0.2488281830748626
-0.4124677074559088
-0.5336307771423527
-0.23833500283050116
-0.06505255480385362
-0.27953182961327183
-0.19674428885630257
-0.11868840292660203
-0.022746261932153906
-0.3192293132635313
-0.08275285853548127
-0.06577780433656968
-0.3901775102621854
0.21061704236350848
0.018500289129595688
-0.09818602702234483
0.015868185030152478
-0.11350798616930886
-0.32426117958859446
-0.41034059747262847
-0.22803480641466067
0.04559780284372365
0.1678111971691234
0.057957304190646285
-0.008162591374163747
-0.4062082436060504
-0.42838651676938766
-0.031732598871216565
-0.028954489991710186
-0.04164393107210771
-0.10756194519496451
-1.141151116440705
0.10396055168421034
-0.11317300672532746
-0.07113721545169292
-0.027611979078680883
-0.10107060626772306
0.13719199615536917
-0.27863953046785556
-0.017770907330159024
0.05347686587421657
-0.15237876581536375
0.5981366761555061
0.46071700603510035
0.02743765711896213
-0.03464924944137677
0.0975341613305373
-0.09075651902046913
0.28798023163301795
-0.015832086466119923
-0.1491016929520034
-0.024336827489942328
-0.008027883025250562
0.042116709970741774
-0.10336442192893278
0.12784720997471274
-0.0979932879654235
-0.1009121471067989
-0.04076241580263974
-0.3587640460281418
-0.16273015785365127
0.009653908484854281
-0.3292752054123985
-0.1599960388495368
-0.03031470127673125
0.09555374400622116
0.045161953424361564
-0.050012323010136375
0.005812037847746245
-0.05778685548860207
0.03627288330756453
-0.014748614479672092
-0.07732363923728007
-0.13799249623105034
-0.1484734592478681
-0.04458446021546235
-0.1981001541469752
-0.35178019015722256
-0.3102657983326538
0.2840488100605492
-0.020441245794494103
-0.26208998555216595
-0.12124913114869028
0.13760294407393414
-0.18238676392162909
-0.10848418202399925
-0.20814241751983253
-0.04504637771008289
-0.04885894119760654
0.0026947058495122244
0.14934045069105797
-0.02445752866602785
0.11847115026181242
0.8756169441888603
0.6590165077290305
-0.15668439692853656
-0.32758791549159716
0.01223023609445801
0.0193024260867177
0.047961523955467954
-0.19969093314660932
-0.20243702258860888
-0.3467327574976248
0.051161370813084285
-0.12260044928975328
-0.13767060982691132
-0.4819660248915911
-0.06519464413760158
-0.0444818636572641
-0.09491181329159948
-0.09380271673995436
-0.07053784236072135
0.08154794955911103
0.11654770095180852
-0.1565539109455585
-0.16768771601634533
0.0023464515222644112
-0.28768697347916994
-0.5392360611814371
-0.06810668719614948
-0.09362997020494983
0.20477251596454618
-0.05807996527905804
0.008912218104130955
-0.44361428489334537
-0.16342712293944953
-0.019593887684994166
-0.08098947043823479
0.4379840903944079
-0.04167115532681537
-0.06121663200257701
-0.17008011125198488
-0.06204507883777636
-0.20240789577179363
-0.2759444547576072
-0.16306785274227312
-0.08355685734305004
0.1720807890888102
-0.051912457174787555
-0.06842634252582842
0.38625590857252545
0.37306178593131645
0.06395516367446448
-0.007389535037320318
0.18989545573398348
0.06754732156825304
-0.0919483763036143
-0.14560010828708164
-0.07999301666520155
-0.1768802107828225
1.6242151088136396
0.21862652481312103
0.5893413241704473
0.1597575012659201
-0.1465281106323425
-0.04569191253299658
-0.007066384776532763
-0.059062354023155114
-0.059269302481378947
-0.128210860412894
-0.0036163114507642385
-0.1327054672832571
0.03933999852640759
-0.05823437273600707
-0.0528942665844204
-0.0578916425333469
-0.12736045447717095
-0.0986985695822071
-0.05551565000873343
-0.18482656921649232
0.030989225981772738
0.09879604406653324
0.16147834755237053
-0.13329973482566143
-0.06482921369730131
0.02108754986067944
0.05466851369708138
-0.079760561777432
-0.0939678561426208
-0.14789122501218996
-0.10523987993638881
-0.10190390440630881
0.011669759594337829
-0.10160368175033939
-0.01156407251224062
-0.14251539641144137
0.18305148747259878
-0.11588574056631448
0.0064667093314848675
-0.03413411488936218
-0.08661823166762916
0.036070257950247354
-0.005834232564047505
0.02934628831302099
-0.1444424915296444
0.0017469906518403045
-0.14479896923822633
-0.05160650407826249
-0.27790016390264943
0.09840689824565409
-0.17191032090024616
-0.188527033558022
0.22141671549120123
-0.10366932464659104
0.28245648703311244
-0.1964080453647303
-0.2596587949751433
-0.24532278764200116
-0.17300429932807473
-0.5034294057775667
-0.05247811953571573
0.07664488681011263
0.24526918718581178
-0.03784919165049172
-0.0033855015503056244
0.010611431828319777
0.307122058116763
-0.05649546527626728
-0.01873628942420902
-0.12569552905298007
-0.16588547923300118
-0.7138825943889155
-0.13083502119628573
-0.18488493634420958
-0.07218185360934672
-0.30300949612146105
-0.12379867210119638
0.10229408977708616
-0.031074404313590303
0.09572818143407442
-0.010219934918190985
0.23841606831387743
0.036868304314495066
0.027810420200339324
0.28873324167571895
-0.15028786069628222
-0.06403394934324833
-0.06765190305113078
0.12585457526122912
-0.2169492479731157
-0.05599668966129485
-0.04701606452896289
0.12765201429563908
-0.054592028151234394
-0.055642314082025364
-0.11992263458071477
0.09034513166874078
0.026690238497055
-0.1026374219951509
-0.13381768458019302
0.1665682580577209
-0.08816815647251688
0.020333196655939176
0.0014326645848485521
-0.05654784001515875
-0.3039326623793588
-0.12993431655524576
-0.041170432657719476
-0.25414094056835995
-0.4296697737027675
-0.23657884803679805
-0.0326627798691948
-0.04786235130415065
0.011237331417815776
0.06182846331311854
-0.05925191044963717
-0.1769205402194653
-0.06970300417263342
-0.33040822530503877
-0.0181534782481523
-0.15183726709155212
-0.38230657272358864
-0.3057562063078295
0.10418076693468564
-0.10288417603524828
-0.1346977985778431
-0.06717596752752004
-0.018713475122201235
-0.5403195750358403
-0.10163366264573914
-0.2001467301050307
0.022389109094080664
-0.1878933452773014
-0.44549316152184437
0.11350034854080208
-0.07952746273598951
-0.062317677379386205
-0.007672001645683378
-0.16217589496943793
-0.18286957113125651
-0.2720574471282043
-0.27173368011375165
-0.23440317561302657
-0.04926756787068198
0.006321675533380109
0.11297843779069897
-0.09379720412107592
-0.16519678065679402
-0.44437169493621026
-0.17268044620952328
-0.1280595076228952
-0.5247606118081808
-0.05523309067321542
-0.11624743827013818
-0.012482202571214825
0.08442221064480013
-0.30541131019363443
0.0531915054653555
-0.2011475641556658
-0.2129454081775348
-0.08361834847020862
-0.12129880715305662
-0.7972433528808992
-0.13030317247882392
0.056716595296654515
-0.048311977529487356
-0.08779360936656544
-0.21072372949705462
-0.1478439650277302
0.03512419677134542
0.08844064971167037
-0.07382016963194077
0.14776150179256084
0.08336345465916808
-0.2973664796114631
0.07662200268817002
0.031572563286348075
-0.05742441112786289
-0.022296578073134718
-0.09167959095985638
0.1184247589562686
-0.19532769471134706
-0.0299772898357039
-0.10310228416776475
-0.36945861507691746
0.09083411626529135
-0.01481724566172542
0.13449514611322055
0.0673278235202442
0.1461766048775826
-0.17425166680268112
0.11197379352121835
-0.02524996535535476
-0.37527545543604623
-0.09308044723988126
-0.21551102036181682
-0.06996893969362004
0.035448054525569074
-0.21420497496252142
-0.37725222473367825
-0.03981951560148293
-0.14297405950780584
0.024692671730674548
-0.7628973569858248
-0.12609598732168983
-0.28191786596545826
0.012428795975903855
-0.050108966215050364
-0.058513264986989194
-0.03717540085330401
-0.005900319750817928
-0.041091939113934425
-0.15704950384494704
-0.20102748077743435
-0.08234441655533936
-0.16044376445979838
0.041702594671682795
-0.03308310673065145
-0.700509375872234
-0.16841917130410558
0.047441861741328556
0.14499948585607553
0.0507870349547051
0.032369690654373603
-0.1972725962649372
0.3312199328709481
0.11610134013694735
0.011944689944670697
0.5997571504375019
-0.21884281424776672
-0.2974590883258159
-0.00572935029782026
-0.059800491709339286
-0.11232426093758226
-0.08949979506280832
-0.2791190037661117
0.32102559180943163
0.10879548746684004
0.1398974698803795
0.09338858793473788
-0.1604246760146754
-0.1021126996677359
-0.22742968065839334
-0.05130205402113756
-0.30180076837528724
-0.07425949766048442
-0.09561835429914768
-0.3256134752679447
-0.42220115345864917
-0.15074581658399724
0.2640729838451712
-0.07300704202945509
0.1286455467973311
-0.5622919931404192
-0.05629712212390408
-0.3902184074249907
-0.0996013359906427
0.006631311218730694
-0.24729656951056053
-0.3219575461095294
-0.08447615671779196
-0.12421245211968218
-0.07919331120273805
-0.09137861003841947
-0.6365291802413346
-0.23377607368637301
-0.08775031549125684
-0.2868391833170584
0.045598719689640056
-0.08506371183951973
-0.05075672564814202
-0.023033180593598032
0.10261464211442967
0.34899555531353404
-0.06816662206503427
0.09625480230915091
-0.29539937050763604
0.004857326546346867
-0.19856684529610508
-0.0444975034451534
-0.2780649382372611
-0.07577292151362697
-0.19202622650187623
-0.07270660473544156
0.02230647241717838
0.08769183243951735
-0.18452784747850787
0.06356394308708828
-0.18757114234972078
-0.4321137582306314
-0.31656885774873467
-0.03471848211727459
-0.09070689491741596
-0.14989303389330164
-0.4155426345231324
-0.0704992861274705
-0.001658200433793473
-0.07889221258606204
-0.17533310552552533
-0.1053579327821127
0.11647950881283316
-0.05922985628954405
-0.0013830595092624452
0.1850045973689872
0.8156046740596405
0.2924383731511479
0.07374278602932574
2.560340490087002
0.5161236657578824
-0.1360328865661543
0.42945687263802856
-0.04195721843932319
-0.254664306428455
-0.026716588975592925
-0.2142419244804335
-0.2797336480060703
0.17030571073351888
-0.24216834062661666
0.18006090215381265
0.1062174534645117
-0.09470771749454232
-0.12688519333101175
-0.09129525198891596
0.05345054390123006
-0.22785896198357405
-0.08831555806098385
0.2746479442836729
-0.008120470114059308
-0.09708011651634238
-8.888420045187684e-05
-0.31335784459695765
-0.04998628221251597
0.003922596199502994
-0.08863719050126771
-0.06769284945729673
-0.009362887775451823
-0.024319022130454563
-0.165141025406601
0.15771196815651395
-0.3471073833484643
0.020682081135886078
-0.06193435621288023
-0.018167844492460884
-0.13772684303431684
-0.032508806449400934
-0.05543079968586171
-0.06520009998995469
-0.2398825931376091
-0.028762915279277525
-0.026859516638679495
0.05133636065776237
-0.22867627017745767
-0.05166228064724036
0.2368548511484273
-0.023263325591977534
0.23473870893381193
-0.15758314692299547
-0.05727881224684657
-0.2757466481623952
-0.1291347213615007
-0.03185687627664925
-0.2553511087046352
-0.4305321857323807
-0.15679464846067465
0.6125302232023461
2.611797739572738
0.5417418585976964
-0.23584265463775653
0.13962084599073613
-0.33952851942507667
-0.13323942155669521
-0.2512699562728488
-0.3170700847448706
0.10289187060881444
0.1260455168298621
0.24429528650643115
-0.17420943329807123
0.08510567411852306
0.24000382196933
0.17315894123574332
-0.02304328591804052
0.16197421057166345
-0.17167111898311005
-0.021334559472546376
0.01738698752279124
0.042977250329279446
-0.08146854853824888
0.19166990409168266
-0.06527190159160608
0.1088169612806313
1.6740049756103221
0.4840525515976663
0.37951066719470467
0.0051721012894908585
0.017530249819276488
-0.18132834100179573
-0.0998879798719958
0.004765993087403253
-0.12106654630667613
0.21532533693238298
0.8618916363148218
-0.129320476245369
-0.0023918410342339195
0.06013288602548773
-0.07473243750201486
0.35903363299323404
-0.11727741985809666
-0.24203314083427174
-0.25812387196490694
0.04176828959670531
-0.3295625467362378
0.030777886596910803
-0.2298713080220803
0.23629974806833096
-0.08002001193240542
-0.16978407842472348
-0.010169051480920567
-0.17180584611562674
-0.16163349900747076
-0.16460673278618812
-0.13612467475941184
0.281052429648342
-0.02418768581322299
0.03202709475808706
0.08881456424103101
0.09518226093254353
-0.008080072139437587
0.014156040904447326
0.17999667912518832
-0.12575179167918055
-0.18719499765147854
-0.03535399802684621
0.05436098230324851
-0.007021579867492703
-0.18662823629440253
-0.05322573906483094
-0.11370666800669835
-0.10462580611929977
-0.07585846131640606
-0.19429911157947954
0.0787451781823373
0.18806156554246345
0.17210778792726272
0.2127889251529537
0.04167001867094303
-0.1696639471808879
-0.49093476181518164
-0.07134016213490169
-0.015670085173067054
-0.11132189362955287
-0.07901978492520326
-0.0066791624537789075
-0.3695196237592324
-0.026478481874097213
-0.09891506497101642
0.06566195888707566
-0.11336118429575805
-0.13261560157817426
0.01657305681231185
-0.02390729488652027
-0.1342188765053115
-0.17921058146713406
-0.1485904171102852
-0.22030950240046768
0.07738023445079759
-0.029168040129018136
-0.07111465094412085
0.08913684004015744
-0.169888496857774
-0.20550940278823424
0.0807708994946557
0.17081838053041465
0.05077318843958986
-0.03325137867757096
-0.3900067107493868
-0.03332579621168683
-0.1159668683001237
0.018269251717779055
-0.48198532165085095
-0.5204364631048913
0.11834281592163733
-0.14318193972480922
0.03902702649033111
-0.031897976780459636
-0.138521578637095
0.05319360281625927
-0.09400349431552454
0.24677718252653075
-0.040698622618341826
0.131669779652264
0.35519002090708185
-0.5579340621850176
-0.05847312128179755
0.024922146001106264
-0.09848854833739126
0.2472844731202321
-0.01871073621207767
0.10403508028124316
0.10923622545729701
0.2600268100309534
0.1722661623326513
0.06730726443701293
0.052426984980300906
-0.046851300461080304
-0.1345106659152185
0.14254280456746987
-0.029037068961965798
0.1923007361480097
-0.025946036117901323
0.07022140146604103
0.028256637066708952
0.14358518079322352
-0.19634740670692702
-0.03148151467564669
0.08479591730528879
0.17553623895002254
-0.09444967229325539
-0.21019139222091868
-0.04511456982330137
-0.07618378075479183
-0.20140972556718786
-0.13380875412467977
0.06561075800978693
-0.1676527631983665
-0.14475371518836028
0.05879704330735016
-0.09998503764945668
-0.06800659708452932
-0.009265044952383339
-0.08306645559625132
-0.13814346602829417
-0.045795346671794364
-0.46653738957651025
-0.11418872778126508
-0.08867798460870982
0.22896688701321036
-0.03479167521673017
-0.0756059261069576
-0.09493211108544473
-0.4302615623642858
-0.016476247827739727
0.0873542702554414
-0.13751056930033423
-0.03683742838316731
-0.030748816753975908
-0.15337603718396794
-0.22247720105551244
0.2611762590636375
-0.03652583898002256
0.13931552673147557
0.6552367079327701
0.19510303471831036
0.24671352094002486
-0.2344967876373838
0.007758764478706169
0.0235456739701403
-0.47023016366716947
0.010547844118622701
0.14084978315283567
-0.02255990651823135
-0.12441879231887536
-0.13504288672662218
-0.0791024318165561
-0.05376063415414558
-0.08331035975815682
-0.08795548080603381
-0.058733451320707744
-0.12434078907120323
0.00027082646963698544
0.3006063931703576
-0.03499906456241449
-0.018260615155701862
-0.25345121253931696
-0.15885453762145066
-0.10120781005437003
-0.2581155813728988
2.592335551795309
1.0128701489983707
0.6963825054471499
0.07363890268051321
0.2049304706890426
0.13620704889874924
-0.07983039688207266
-0.20763838456599354
-0.24868955931508915
0.2329879253661725
1.4082239410694795
-0.08893928081798601
0.12881172983361677
0.08138168693771182
0.5650601466706596
-0.05756836386232137
-0.6049080007536939
0.032809507852364604
-0.38460186161608817
0.15800570674044773
-0.06994020234581996
-0.016858425743283827
0.029701696057679555
-0.04329245031103092
-0.11156527333580421
-0.16435424188854747
0.12444021018637075
-0.0891547769773629
-0.029308894989482106
-0.14860443594616546
-0.09206257322854146
0.24761697387387277
-0.06840121331237749
-0.07556562560602009
0.5900666642070297
-0.20482568968273324
0.35163139197020366
-0.241233519334164
0.017878242922283342
-0.09683942006637841
-0.15992512731778877
-0.10786842842007388
0.06997700066927333
0.08081400321399677
0.8028359937711937
0.2512675805718604
0.1685872679212241
-0.8695129617506382
-0.0244472233166692
0.14845951738212249
-0.13174557744838797
-0.04727860553283048
-0.12198401396188038
-0.5401518987826353
0.06887473059266212
-0.03042249648640657
-0.1797022664533589
0.10370085606592151
-0.0770617340776408
0.022173000548025526
-0.15220571988859263
-0.060247754888163876
-0.09606111820186963
-0.2849888217744996
0.044135614331524534
0.017816772624778047
-0.08147656848136717
-0.030391709072352367
0.00912711725169528
-0.30773576931938035
0.02560643886050663
-0.06791000132871844
0.07748780586488933
-0.23656538461545837
-0.057302826816458416
-0.03577028418380719
0.7404413739779298
0.13421377884604196
0.874208432711278
0.04409700867892123
0.628990748196258
0.022609424573094315
0.12606609663043392
0.2618723639774162
0.019896663911506313
-0.31307350976267434
-0.04968779731652041
-0.16347853842881907
-0.0023532661972881968
0.024078206726482188
-0.1060792492926972
-0.44590203716710397
-0.2911130407731053
-0.19991861456039575
-0.19896351396810508
0.11793977079792732
0.22471991564387556
-0.09439780491743865
-0.0833917413241745
-0.053138497290784625
-0.19019441762165967
-0.15801574314403732
-0.13335481485968792
-0.0840261646964587
-0.08096076203000582
-0.02877552890498958
-0.04478417293019289
-0.01954887929910015
0.1481302963865747
-0.0034400542100560343
-0.07327079652484174
-0.06626799352269402
-0.15688734372817092
-0.021377657041411084
0.18055054936716763
0.031701388082560567
-0.03885091074474126
-0.031129528729050726
-0.10161587466154945
-0.02767049732959863
-0.12212709835816508
-0.061145557138709186
-0.25476666381454294
-0.252206425457643
-0.28135308518445584
-0.19347656620921885
-0.2286970321200068
0.0014016818971179824
-0.10372911843858439
-0.11267406069505358
-0.25528738857842237
-0.3254476572905394
0.029864900800148666
-0.0668049011700191
0.6321533885988606
0.2710872649397539
0.043949508582828326
0.16663328472883748
-0.24066675517730143
-0.09037792573922236
-0.14990485174890253
-0.0848935630502543
0.05108015058818971
0.043706239881011646
-0.11086318501058919
0.11619211974188032
-0.13796294135114992
0.505680036918627
0.25197021061397057
-0.10878052836478748
0.02679461550840578
-0.05442661836658162
-0.10989305539571965
-0.2260348107961649
-0.2625518621860549
-0.06519883300787827
0.022414514538317453
0.6739866587696445
0.6269555915811377
-0.05577678231900111
0.08873413909351421
0.07749635738907833
-0.09682864453531587
-0.4987857952291261
-0.16566463054883993
0.03960191887679326
-0.25637480674561325
-0.252651021612644
0.058238791319194246
0.030639103029204324
-0.1043955757921844
-0.05038985591204589
-0.028040120421501592
-0.043355367025409965
0.1825361333156782
0.10157185750596173
0.1819745349006358
-0.09174249421188255
-0.15535357918329226
-0.08036628572253889
0.039655849182276263
-0.03930476747674226
0.035229376330703804
-0.16984792845383687
-0.01326598431418064
0.10956908831962019
-0.0305891757786076
0.2486011532864291
-0.19769557645218003
-0.04833504980596558
0.17848088606891258
-0.08687824234595916
-0.10475815970855545
0.039847306171558766
-0.08562939913779608
-0.10840254054076286
-0.10086462939012357
0.6390355746880418
-0.09295578287050524
1.495185869037673
1.2303557606966675
-0.0762055982202347
-0.045643280580493384
0.010732205691289253
0.007179796930346956
-0.07724980205984243
0.04169408946134573
-0.14709428905087948
0.15033630927326908
-0.43419101065248544
0.09114902059956843
-0.17133322567923995
-0.08719280640768708
0.28995848429477283
-0.0032124678013564236
0.01931790976368112
-0.6105825744967819
-0.1360559239360396
-0.11885943836977605
0.336009866009886
0.20838883497102195
-0.045701047287875045
-0.32814162481970205
-0.19385638785310602
-0.2513402839347085
-0.26143607350531417
-0.3070992457255146
0.47322622857326146
-0.004662665228351414
-0.11993085954642761
-0.20427293492603996
-0.10255323149562706
-0.027460812830211997
-0.13555426654939157
-0.18781985577658075
0.027963483968230198
-0.13083836389547884
-0.1232624909773408
-0.28565290844304214
0.22349007366757193
-0.03552853693516969
-0.192711366230303
-0.1926795673622766
0.06213541263893506
-0.1791447666413688
-0.08378552777831748
0.029320100170347384
-0.15362754997142797
-0.03976167306698708
-0.00011522984375039806
0.02095399942853072
-0.08065611829343158
-0.05613367828108626
-0.031094644221032173
-0.0464847077085219
0.02072908299529867
-0.07449864327087383
-0.0039038824750471887
-0.22643210159522542
-0.038083704630133636
0.34134042630114597
-0.190004638542089
-0.053918076632296134
0.0745917050975999
-0.08205807486667724
-0.007010919796278385
-0.48571208307572056
-0.17154490995137858
-0.09400411935894558
-0.021456455251681657
-0.21240105003105178
-0.017361452278113382
-0.10531654505091244
-0.10375212994771335
0.00965019991928051
-0.06736949149421703
0.03551628919974453
-0.0987695198702079
-0.17855257123217025
-0.18722291940097016
-0.255806138906281
-0.23499343297957362
-0.08172373415242562
-0.44269062905150114
-0.0555403628703012
-0.21814502489491275
0.07470311308322088
-0.142895242950778
0.24269147013908887
-0.05896730156082925
0.026011575948322027
-0.14087185790488221
-0.12020345423236084
-0.0309217122573922
0.00979249098527769
-0.02562368400994783
-0.042005737549707704
0.03250742309962011
-0.06893353605613746
-0.15249504207681913
0.0698587390467067
0.08583461378828389
-0.05605282359605539
-0.08205982278551882
0.25862557608612863
0.02435230847476392
0.06545258355812796
0.05531912784065949
-0.022367268910623364
0.007701863672285336
0.18138010433838747
0.17241955736388262
-0.04287034883151786
0.08141979980292516
-0.5011040748589395
0.13761738678497037
0.13733289174911473
-0.23850382402801873
-0.07828450433536885
-0.18938453729276708
-0.2618122477316537
-0.002630189719684162
0.10501944029244974
-0.220837653759808
0.03884540825679944
-0.1467748488532526
-0.08006837927493417
-0.08813792236074684
0.12367121036970401
0.28255659315727183
-0.09400439781980953
0.019264921843202828
-0.055950533321621324
-0.16586835039872913
-0.17464629242394414
-0.4206369089811967
-0.20086524669505812
0.6079006894923507
0.16897457200577018
0.15870156065228236
0.24529994678333464
0.04525562135695791
-0.024648212170370488
-0.09928047607623437
-0.027962999909074575
-0.08886536782484986
-0.15450593281436148
0.36876450969884317
-0.33448348642740416
0.08990402941718649
-0.0672713057172207
-0.08832964286089628
0.02837616281945349
-0.025742794226227866
-0.0996616454905752
-0.1385369219028709
0.06664141238295708
-0.1165949031314612
-0.6290576321208954
-0.150663926834438
-0.06384488009409604
-0.022831749278370266
0.041133801419199464
-0.22927634598286822
-0.06104250742095457
0.16664721881046146
0.08256943524676283
0.06458015435928474
0.012889711229236015
0.19166627599848807
0.09545519822991208
-0.016411471651018614
0.07660873333200711
-0.32345616113290365
0.07242772755557296
-0.10116532240007498
0.013741363407465589
-0.20528699766536743
0.10430457314651727
-0.1677695461387008
0.03433671330374022
-0.103057877604287
-0.3319202710587076
-0.18729721528987262
-0.14826334770215174
-0.28120505859393
-0.017603735404607995
-0.1678340431779543
-0.048044512746206004
-0.08014645341950108
-0.09734019406761103
-0.03223385742701549
0.0005903888556931029
0.2319487699246116
0.0805416344997704
-0.09266082345792674
-0.11661465687846889
-0.0321958737375628
0.08929054501443778
-0.20114560660688952
-0.39999884056375096
-0.05604224825429457
-0.13444574471718104
-0.09697742468186046
-0.14360010109244642
-0.15292655986374135
-0.33944770438683886
-0.00975753351922618
0.2970841138255524
0.16965540192364167
0.12383334783046092
-0.3204605909785929
-0.04571048785270333
0.09499150845485536
0.031336008814893186
0.3685001281076409
0.1516464168458415
0.05078431859959702
-0.11634194955461624
-0.14078094238121897
-0.4272726211018738
0.07038821473792599
0.17245640300312365
0.008766724772148956
-0.3183826420451448
-0.3825156464072383
-0.13859024370082124
0.07181967536247748
-0.03905156704771572
0.1883796640334986
-0.015586351311342653
0.17440086559411125
-0.014668770199857756
-0.12566114100989034
-0.03469556615427466
-0.1005430352716979
-0.12682584594138072
0.019908934216452037
0.03202543534934334
0.16862602452485906
0.3099416305552911
-0.08648605998671183
-0.05036637070175185
-0.07718164100788694
-0.06324892717553963
-0.057038038213959606
-0.0024024262436826297
-0.17094035842279542
-0.10438683088315884
-0.10371897284336955
-0.20090530894276692
-0.44672808968060673
-0.33222732657012605
-0.23702110029038875
-0.10384849417546567
-0.27766457572444986
0.09193595138373531
0.004786212004205881
-0.053995065583613555
0.07811131433397064
0.011907683319682248
0.32044475048972787
0.03738638339161824
-0.5104925195061287
-0.24536245111412114
-0.07992752524655497
-0.44766094302298015
-0.17768425109372013
-0.003199476462143418
0.14947895879631976
0.057384423624375056
0.2037697627193621
-0.019344400498670287
-0.32311904631852884
-0.3811299106204253
0.2695685237457641
-0.08025549939963127
-0.186067757606346
-0.14592122000551955
-0.16771074193013133
-0.062491828393405155
0.047772488020416164
0.0305317117471618
-0.05826144715333384
-0.0257570504353257
-0.06613771898192115
0.26050577602415176
-0.011412610377180155
-0.0068218466124943975
-0.1654703575285217
0.14631486506680905
-0.064761117914616
-0.027960481890995825
-0.01435006432465752
-0.13934047027238955
-0.24313371276413548
-0.09050286451661856
-0.13081496179303148
0.14506849839892386
0.34692565930352975
-0.045896731741323034
-0.21463967968455627
-0.046055148930314115
0.11291807551658518
-0.1828653482568099
0.029285856925107757
0.12157450254168571
0.0327055960945622
0.2505526326773059
0.2996923039536002
-0.005417359960512434
0.03789992747265963
0.017272689361864216
-0.15351961018709956
0.5795601185798535
-0.0497342491093397
0.11954428187032518
0.1255551972913063
-0.0415485279920728
0.03840573108609895
0.005207564869016444
-0.1602202626776602
0.06400377821210003
-0.09239019802467091
-0.05835219391648066
-0.018899886344854594
0.0985254755077904
-0.018379196542153003
-0.10531455047616095
1.6307701554047562
2.2926574479167376
0.7414098398771011
0.4335562387295445
0.05727981044029454
0.05217414116416973
-0.05515917978340122
-0.10415095392983931
0.47166266704533505
-0.15754497010119686
-0.019407938445957514
-0.18620162777549756
-0.018487011349456517
0.2678958179027277
-0.05454708989996734
0.07048803653724008
-0.04926578250242018
-0.18127426876490993
0.28584668048707834
-0.1163412411450137
0.1511608040343212
-0.3782238273141697
-0.27224465764876127
-0.3176206562833897
-0.31746896684835757
-0.16488960438372668
0.1422775963699119
-0.07167204160171595
-0.009946354487142864
-0.1341152202148554
-0.10413487487712739
0.18159942611827173
0.013433368828140932
-0.21973627265466747
-0.18117774596820096
0.4264924784586954
-0.04565407079547428
-0.09115408018537823
0.7397773196565057
0.1508995135235436
-0.18218908686334434
-0.004618952945502613
-0.07234686429661143
1.183613989898429
-0.07527792723014048
-0.4655261260496354
-0.11871094851738283
0.017164515160616213
0.07749808040119786
0.3442659735496076
-0.1008475514582761
0.18833271875293786
-0.10720545806677598
-0.16572460963780933
0.16971836441046803
0.018074006730521456
-0.1076523658546449
-0.27489030876860243
0.04502939659629905
-0.21844209203523612
-0.6172530577763812
0.20859500059335176
0.12687136997530013
-0.23255578198835375
0.020234785085302937
-0.1219775671527338
-0.37107167919030903
-0.017135293859231217
-0.17092581249834107
-0.14513374014883337
0.06604617655629615
-0.034517375001325325
0.058394235048079494
0.18577405906597977
-0.06041040334016144
-0.019532153049677856
0.01677838434315438
-0.16847325416363315
-0.09951871903982287
-0.08968686201535991
0.029554184013149336
-0.19777975557808652
-0.21811640146970948
-0.3070980013663614
-0.021426498772514152
0.04774922885622345
-0.08745839568334626
-0.06931779938549798
-0.20284310757826582
-0.14182003543684965
-0.014972299932975839
-0.5138941669101302
-0.260731605718776
-0.25332027285233516
-0.4164824364960482
-0.16294427306704493
-0.1593587177044145
-0.06376257344191473
0.15249910676615785
-0.069297369284891
-0.6641054865088968
-0.1690232894794804
0.035594599696501784
0.36928401859895127
0.308989784300024
-0.12990098857801144
0.36405434046143836
-0.1113756988233754
-0.11913594023651396
0.09304885017901417
-0.1171147644748989
-0.5941482350419264
0.3213179756766642
0.015632907711747992
-0.014335891062845735
-0.20003428243563856
-0.021303431472639165
-0.012917301338134261
-0.07393228859594586
0.03344990515502657
0.03841914034890371
-0.07773864207423518
0.24295836082886163
0.02493302717024287
-0.004298750511046865
-0.4041786511153348
-0.6528335452024131
-0.37113222192910594
-0.20662636946587412
-0.10136534120524542
-0.32115508393659536
-0.05456864197640915
0.1981588279513881
-0.11745931136869278
-0.11432880955251858
0.017237002031205165
-0.005828290526346834
0.17987405578219337
-0.07368311562172039
0.05344773766524254
0.033274829675001096
-0.152949696808518
-0.26166262530289314
0.09042744096589435
0.019379806455966223
-0.26045487645164145
-0.08813308886852168
-0.04802576667213685
-0.053925767768145665
0.10762380748511494
-0.22851625593178534
0.11966637477366288
-0.1022985919173435
0.13088041341674242
-0.20531415858438434
-0.03388504123956022
-0.08571133658402082
-0.16892448838604157
1.4841580044127411
0.5827844970156173
0.4528267010111529
0.06857419701162017
-0.6042718278524936
-0.20706527855565263
0.03917663228705461
0.16409214273587852
0.19573721414221865
-0.42489931682787657
0.07222599071234106
-0.1942805908633471
0.01620155309973975
-0.0732047266540297
-0.36194375267879775
0.05929325728949182
-0.1830609720174385
0.07461877315439722
-0.09139612185991974
-0.013806285082038773
-0.33095899657373556
-0.14377851866006816
0.07103732476418571
-0.3189999280665156
0.020234836941113984
-0.18398880562475425
-0.3937483913214855
-0.08148906760345774
0.05130122637903521
-0.11920242062392891
-0.048818886184706686
-0.02925095303967619
-0.04825261441906684
0.0021579637802629026
-0.20710337183373467
-0.10845983988050113
0.03000165608678069
0.05924934120989085
-0.0644319154441285
0.20218667037161267
-0.3820965042287053
-0.151555348048528
0.24421640302189637
0.6430861205095572
0.040070102715326274
-0.29907652521786116
-0.09529771874255191
0.0852426717683755
0.06560562180082093
-0.2742335912360147
-0.11575510547501235
-0.060153883133067444
0.0005343397958575787
0.08361354617124782
-0.12541718475224337
-0.00909167319378042
0.02526799549198583
0.03696241111492982
0.575990497659318
0.5487295398805034
0.43707583595921023
0.2962361965069144
0.5676494601952481
0.15043717447683602
0.13538762957869732
-0.16344226737613773
-0.0005763303713098053
0.002367826224410577
-0.6306096815997224
-0.051295791090574853
-0.080007956052875
-0.18393542503522428
-0.2121910131221438
-0.044012973030229656
-0.18532955647710428
-0.09545202895043403
-0.16604666272797966
-0.14937960774487
-0.004199040184993676
-0.015473803016060968
0.24780544407027358
-0.18601824190582578
-0.016463473624893917
-0.25614547520177716
0.1791244929895388
0.294009207882613
5.325067042633863
1.3945075228071355
0.17137803990670702
1.2399677382604983
0.3504394062642556
0.43482780758263195
1.0215845650353719
4.319422149203014
0.5855309611115325
0.3765616594846278
0.4126519198143599
-0.10922765677267074
0.4348284572851168
0.0942865558651059
-0.14248696994203416
-0.22623436238399208
0.06243529600842026
-0.03202766415023563
0.195667325053317
-0.0366556752214876
0.13953075542827204
0.1744672781924214
0.06468177370424436
0.08700298231245296
-0.01831841392459359
0.017928724883872735
0.16738412315382312
-0.033816827302784444
-0.07600082028680807
-0.886945218977758
-0.22908595680532334
-0.17049933725949806
0.07897337546197819
-0.12114249624356646
-0.03455963184768405
-0.1295684961979087
-0.052916136644406656
-0.04250676188965958
0.03148381026612868
-0.07894298807659623
0.40342206386775975
-0.20741506863879683
-0.3328720357339745
-0.021622708589223185
-0.07424907379440301
0.034706904107670036
-0.08502603963763797
1.1255242561578622
-0.18752092839068396
0.062313129604635954
-0.01850032367357043
-0.03858032898743602
0.2186812899833305
1.514921978996741
0.39821685106511867
-0.11221648452520404
0.034340288099402164
0.27307186618772367
-0.12357036885356731
-0.0572969890581069
-0.1592580681324384
-0.27451535917757197
-0.04517377515123726
-0.142696455453079
-0.09446861922453803
-0.10444319177180234
0.026198123331629714
-0.02179675931972472
0.0070512396708310035
-0.06190409884613233
0.012409836715126816
0.2270061240585091
-0.04952929886018365
-0.0020543456206090324
-0.21958453513392975
-0.1611588657102629
-0.04822083965692803
-0.029172692058569177
-0.19289859920427024
-0.23210601442445586
-0.356740954312562
-0.16942907898148812
-0.5963659396741477
0.1302167003670346
-0.1537484227379891
-0.2480639769057872
0.11932265557223863
-0.2752501765408987
-0.09419351333141053
-0.1358952630691045
0.24450200379074827
-0.1181921459639356
-0.0669781841229581
0.09897708395166638
0.3396921755596589
0.14640266875921804
-0.3778202115091856
0.13286848105871685
-0.07308701978099671
0.002147127735641246
-0.04741857347888201
-0.013063621655087431
0.028832902071360623
-0.1538160402990824
-0.10479263175045729
-0.0990982275519084
-0.06610673826941178
-0.15716045681413726
-0.017364295866962864
-0.20453393598725045
0.13379208875081663
-0.11117814434414695
0.4048478947986467
0.5977821193386837
-0.02693445794270961
0.0680614335512838
-0.006362775479083184
0.029931462930844588
-0.03074847778028399
0.6391733575583097
0.12304767865025772
-0.2892275891064161
0.10019462083343526
0.07668946100372998
0.2563029820922519
-0.10342990946710554
0.22414098956332112
-0.08506794662927206
-0.08133200020783378
-0.07897443171719176
0.1948117759814319
-0.0980399652618164
0.12591827174695483
-0.19155235718399904
-0.09690449748051483
-0.16964062398789445
-0.13989096699601897
-0.007587498428024672
-0.04258124400219509
-0.2449072041866552
-0.20811156541607154
-0.013681657405904844
0.1079420028056292
0.07613444450441571
0.16930705394843384
-0.022575265400378124
-0.1674101977263447
-0.06740280976177533
-0.061957777910148816
-0.02207714308952666
-0.06492593101285242
-0.09598357033893946
-0.21308395142800832
0.20975298264970493
0.0862042793971645
0.0002225849813670355
-0.11326552147767108
0.03138584272669448
-0.15785159974268975
-0.3598152416985565
-0.019069706527329276
-0.06652708560425082
-0.15555058791613413
-0.14616318009139115
0.25705338158658986
-0.15754689930120422
-0.42487094872095155
-0.2575167666492076
0.1250563391629307
0.08126838180262719
0.08557925667843388
-0.11488809195151044
-0.09806270593606813
0.003916702857981568
-0.3443414119227489
-0.3751500260201967
0.8013647114971226
-0.10612248752390235
0.17805450207344994
-0.19131922729045828
0.055932151281862436
0.0027042955477944225
-0.12272872978679583
-0.14180609958647294
-0.1096558338602219
-0.12196195073067402
-0.09664984341130063
-0.08726801193862213
-0.3206645771557752
0.041487908858239476
0.03663957520106729
0.018552056876306663
0.08413994882116967
-0.10109655118772773
-0.04687526259963143
-0.1091841563295166
0.03504407930656264
-0.05500762439649472
0.3581090099019302
-0.08890464569782189
0.17012068371864533
0.028701255237523895
0.11371612203282297
0.3386637833259456
-0.02567677234060157
-0.004622523087058625
0.08853656699159633
-0.016828561243431173
0.20357902592615146
-0.16161686750011187
0.2034003686393596
0.03346579309516908
0.17258545923438376
0.12598673998896984
0.22032474535101415
0.014969108537537763
-0.37182215947230224
-0.25303561723231993
-0.11440018171537016
-0.05638860716939335
0.10782808478168472
0.05825967379287845
-0.039361700198700784
-0.08449220769656744
-0.01569793573178227
-0.19155462489358566
-0.06442485053159407
0.20985338452922955
0.19029520983742376
0.04057549290263778
-0.19052700727328753
-0.1107247220256507
0.1571735884777384
-0.034356623804238776
-0.09202148345217054
-0.009242570366531495
-0.03815918560275232
0.17142286764548578
-0.21280485290601428
-0.2685052210340675
-0.035770622004892436
0.022294973067929325
-0.06196831920641855
-0.06237923765845681
-0.07058450762043963
-0.01773854479987513
-0.264447828722241
0.15879282165073547
-0.06563684226580525
0.10892369418466542
-0.11000441953010011
-0.12158411175850095
-0.08282714513540827
1.248327835770198
0.1298257234863709
0.08857815710268245
0.25303757856691417
0.07253481985291022
0.449484484130632
0.3987836271829237
0.45134598918059904
-0.30587807070448936
-0.10134307028055842
0.1262117882146322
0.7010233925185347
0.34050946526205633
-0.07893566557330532
-0.006255915195065411
0.031501169608251674
0.16951386286641698
-0.3093473620605193
-0.07942116760214402
-0.1774121933984817
-0.1895668269056162
-0.14908960758522263
-0.07688126052403163
-0.21692294572597526
-0.016982826904301824
-0.09418872725093268
-0.10082403910847607
0.18993993709249885
-0.15658832741650572
0.10901580732627249
0.4980157371738587
0.060592798893930516
-0.1579724534186304
-0.19157971941965055
0.13659662027844682
-0.08857285920046776
2.1195024294799465
-0.31069762229943626
-0.3764355314186267
0.0051059863518785826
-0.10410668194799443
-0.03535798649327009
0.07574149232072572
-0.011183189796888057
-0.1545448732995922
-0.06215525476717026
-0.1221523928733524
-0.16405908480041895
-0.019980183682524855
0.04031450951933934
-0.10588565683355768
0.23286316144749666
-0.04692647072921659
-0.6402650292050203
-0.05533831968659931
0.18574423108360952
0.4205533811916075
0.016701371798486783
-0.13108326541889095
-0.2821594778861269
0.02614484504899311
-0.19693245280282998
-0.2801415477627406
-1.7391126509598726e-05
0.13748138637320018
0.14228155886792898
-0.13230445286240075
0.2773470866271038
-0.08046720306451885
0.2280584814560129
-0.12175886329323177
-0.09034372075371438
0.09814563017202192
-0.11993557526596106
-0.13659019645523252
-0.08584765459470912
-0.25432272400447387
-0.320363760359977
0.049407973710946386
-0.025130869959355817
-0.013323189037898867
0.2706670996010313
0.38604706948317724
0.10993187727068543
0.10931120637830291
-0.18884678030714633
-0.03643112318253853
-0.06473641032983699
-0.1855876402612072
-0.1953405154906911
0.07279696556834048
-0.0405335406869974
0.16919469815859567
-0.08287145634687079
-0.18220874578910787
-0.01485340344502259
-0.0913461796041016
-0.09946692028907533
0.6852647236725962
0.15102459572720878
-0.06897519287549235
-0.1893514767889503
0.08302208016501485
0.04516672054622867
-0.04250812541062003
-0.10513213507521237
0.18960023899151207
-0.0825670012842222
0.015816177840833914
-0.06623922644069512
0.30880607867168997
0.7901969252786796
0.38808302266229583
1.0880127685175895
0.5244209498249115
0.4460212370609148
-0.12191787287572657
0.18954625247929896
-0.10671660597624909
-0.01966370380857418
-0.18660973566642092
0.15326162527555295
-0.00643584900783667
-0.08590987485317836
0.01613430115681637
-0.021803333792168842
-0.24565342131147527
-0.005984377818010931
-0.15439976480282466
0.7585370545227129
-0.043350627437160935
0.004323720106163858
0.04837677233289903
-0.10874169185341871
-0.1240404113817834
0.026075416326442485
-0.12786368474786652
-0.16809531629100977
-0.211510780009619
-0.07183552003780848
-0.10412766725676065
0.1046145867602621
-0.0671238066552996
-0.044269705997873235
-0.12006938569512628
-0.20226853906920578
0.08011548023749493
-0.20082733546036824
-0.21003877937960722
-0.24499555525091235
-0.0431380275587994
0.15795263743671673
0.21990897338027487
0.11248301529435517
0.0554837210862865
0.03133509776236296
0.006459720911960357
-0.2215382398897277
0.04208859592172467
-0.11131211437856281
-0.0047615368884262295
-0.22586402348673773
-0.12613283984821813
0.14877751467081202
-0.0041377504339878595
-0.06322956606477927
-0.23789427534090266
0.02234406407789529
0.11524743000828547
0.46062804932836293
-0.051639703427614474
-0.08843876460036709
0.3683037025360203
0.6021557144760971
1.1776694501339666
0.288899421634734
0.5701673933319918
-0.05851392281886643
-0.0025790994267782326
-0.08002381777851342
-0.13791905321112033
-0.2506083101747772
-0.5333916208252368
-0.030186371000238743
0.0005763245477807682
-0.06772449401408856
-0.1307837043543954
-0.29778579455823206
-0.041589203694819867
-0.05254045854935441
-0.08573382905662458
-0.13470741666675357
0.03962944504224452
0.006365203640790565
0.022003436547641236
0.3989949624953096
3.657936396330944
1.42121541053357
1.9223357961440195
0.8057129081583366
1.7433347247308884
0.04080126212656751
-0.005245963041003472
0.06102180283036962
0.5159973596657618
-0.23069042229766473
0.05642824324745344
0.39258631406884603
-0.008784297269820341
0.01889193949989532
-0.07629333753911864
0.5209512975874339
0.16027157976544731
0.023422562444186452
0.11798957194567623
0.13066004553283897
-0.06512204513568505
-0.25793255556181305
0.07917457176606528
-0.1272349955894731
-0.023180283624377157
-0.051902604814222104
0.02899338115237305
-0.1876752344199278
0.5909002558613206
-0.1063927852190503
-0.05546270506708127
0.42288770766377465
0.0824616358084933
0.2072407775954408
0.07407499573751677
-0.2152205079162573
0.14510301476912804
0.007344609771432164
0.02153332635137239
-0.0230525003775351
0.040057427920737146
-0.09729812604165777
0.010299986397921849
0.0642152016547979
-0.1181785767756949
-0.23521443966198263
-0.00867007075661636
-0.5034424509840669
-0.3202214284344348
0.06062052245946931
-0.2151777292575915
-0.12120249521685249
-0.1794939793965941
-0.007605158182321938
0.159729745631537
-0.06609091363828379
-0.002989294630781939
0.10725416280532943
0.037321481219902766
0.04416784081116868
-0.19483372965077655
-0.06911249342225621
0.11863491229176694
0.11656223175873488
0.06545241850291773
-0.263275980599406
-0.11609964929803528
-0.008637902921859562
0.27392370951136247
-0.3393066728288255
-0.03205269593635984
-0.01899033518951025
-0.31741118095894083
-0.06754263418419448
-0.1539495555738222
0.1178223655000146
-0.18909917557713968
-0.15029097088415916
-0.6849054710790969
-0.2520007957169126
-0.2871869440860317
-0.0715820316338216
-0.30093736288159273
-0.028260276293341578
-0.1294995868868922
0.3943207794367412
-0.0066575564884867695
0.08787176670839396
-0.03903827261861309
0.13736852162562366
-0.028435549836989114
-0.34903457000163635
-0.08736002902347019
0.0007444584991024963
-0.07670729969159192
-0.030406642003126753
0.0056927586633928
-0.14672991551957912
0.04888821803491522
-0.22155163986496645
-0.19399823938188135
-0.2611810653318528
-0.16665498681527324
-0.2811209220733313
-0.034150860250181936
-0.143401467713845
-0.18211730650511015
0.23292089052754808
-0.11491164482013394
-0.25132064599387915
0.09034612725159069
0.05382211234309409
-0.06512062378634899
-0.14511864004425348
-0.022687750884462853
0.17532511444655557
0.2080829626811241
-0.040774522755293446
-0.1529169729632889
-0.009593222840923628
-0.09555207383620712
-0.08141377569451759
0.10083146683049007
-0.09845183859784529
-0.08810460074927369
-0.24291692824270494
-0.17664941303787082
-0.18554702618356464
0.08622816412113878
-0.07607551702196494
-0.39701510227611797
-0.626855935010717
-0.057796679143570624
-0.20976011870174577
-0.07560388292708883
0.0805004779857983
-0.14180249830512595
0.11655623704860003
-0.06509000728946582
-0.12734634853577464
0.11735788794489159
0.7747099178799236
0.014998570896005585
0.06278884119141379
-0.29137048307482055
-0.22526622228682133
0.11409376868487756
0.06522862145569368
-0.13481661989512722
-0.04696709409016021
0.10891939265864814
-0.08781004603832249
-0.06205570478372787
-0.4382514424239421
0.4107807050072196
0.4345795206365285
0.12526199837223484
0.09182720800387487
0.05251056751330312
0.26209760485352207
0.01057244442581019
-0.04701059086407438
0.26968186457310434
-0.0375576010015705
-0.026294004441715382
0.1407125722334026
-0.10962324171147589
-0.25959028085299435
-0.48186794940354877
-0.09368829198021107
0.0450886039675717
0.21029955976323686
-0.10756788357949035
-0.01890517824785454
-0.11376893149450967
-0.1231012556604281
-0.019097494608294546
-0.03167993959829461
0.5656721567806539
0.2128474112928866
0.3070493574274962
0.47578682409975726
-0.038402949715378235
0.09032658569418531
0.2743958665251357
0.153282045239668
0.14216044970468908
-0.17775780745629313
-0.4872112297729577
0.016611156784229253
0.15365148221553948
-0.34047864767895086
0.05868315694728976
-0.08087702828669212
-0.09428423964477131
0.17969439883759425
-0.03712369071121857
-0.8239901182613453
-0.6512721606071319
-0.02007871628194161
-0.027074378091188272
-0.037679247676268665
0.10351191314042765
-0.08692558108007571
-0.13738936886634345
-0.3579356324720612
0.11474215976759063
-0.04438575701831744
-0.0275790670596019
-0.06898573365719261
0.1743241685954098
-0.17830379984139777
-0.12454211099126145
-0.3391653583331387
0.05791105909064613
0.05977389093524508
-0.33184666388606643
-0.11284693185371862
-0.20226650233779941
-0.022743694108912776
-0.12018153462315483
-0.023830594386987154
-0.11678206100968738
-0.22421869163835254
-0.2004906120970512
-0.1949794145386886
-0.04906369389194536
0.05758817755180757
0.036026486128630304
-0.20492286753563976
-0.22169306749289905
-0.14220145011297947
-0.16172596062821623
-0.12557788852333526
-0.18672009363029693
-0.3480724969214319
0.041578614517779784
0.06179562252218144
-0.21204534437961606
-0.13674964801556833
-0.2976008185349707
0.07252993685920679
0.028852870992940514
-0.07946121943728256
0.3226195079067144
0.0001354876610018485
0.09989946196518139
-0.25578763698036855
-0.2003630753651475
-0.19356588785699758
-0.08824562752649644
-0.04479412333139244
0.012983169750808456
-0.07818775935536998
0.1083131974848061
-0.16994388308561492
-0.04643415183832909
-0.13576848088426835
0.1513570761024804
-0.08089326080247182
0.10539658358244222
-0.29675419471069264
-0.10795769353329482
-0.005357309318810905
-0.283853911954744
-0.17430576843003268
0.04675805546139686
-0.12639668840499693
-0.1873412954886612
-0.04405366021743281
-0.42576458128151456
-0.01142583354569412
-0.6578539663936437
-0.09570759345141287
-0.23373106039823144
0.04643208978727364
0.008641282762434923
-0.09145234028155633
-0.14029083868184022
-0.16369948604318504
-0.1237745152120856
0.17947156187161686
0.8549119445785759
-0.09738441420582748
0.23083290384348804
-0.2834099837751934
0.016473270381737716
-0.47530942432916146
-0.45807477281197184
-0.4575717760096617
-0.06550931122585756
-0.10061109352876928
-0.10239130682238212
0.08270636630278425
-0.019752747151304022
-0.030786693584680027
1.6946714043341033
0.2712470933861363
0.12482419761712688
-0.11719292082963069
0.25205410111668874
-0.03399116431715252
0.33341667136010966
0.3273016023953943
0.22523858585179068
0.004853200632636081
0.11001080255867073
-0.00768350266498782
-0.027483902174027647
-0.13719326317416708
-0.05546561477023483
-0.2919860505005328
-0.1496694465292658
-0.31709959508713964
-0.4122058056284156
-0.13930128416030693
0.042176744598171716
-0.06645001476813728
0.3648467083110728
0.08763674653251037
0.07526486067283475
0.06231496813140193
-0.13517616371513633
-0.08908618554887167
-0.11630517775725094
0.00290453345262984
-0.10823732694249837
-0.09468281020496298
-0.1544806199793583
-0.14150219518708573
-0.0663281196438968
-0.1085612200515879
-0.09698727018954
-0.11644595178342533
-0.17022562498635058
-0.026956155507290084
-0.28707837852344453
-0.03962325916289287
-0.17326477162549936
0.048332178266762
-0.05309273326543022
-0.037393134993461676
-0.07700759820821886
0.06939270085242825
-0.3243230291046261
0.4959578137799597
0.05449853822350084
-0.1067244891323273
0.020297995473040856
-0.3334340591210011
0.09922221038189202
0.12343093067045302
-0.09599850103639435
-0.03647617969192092
0.1553684916823122
0.19677705425994338
-0.25445257810163713
-0.13342502376335486
-0.10205679801000983
-0.031098674512008654
-0.06278343269104324
-0.16600247250093622
-0.16564814758712149
0.24365038364994632
-0.03559153296386446
0.07489311977404256
-0.17781485144982281
-0.06265771753189818
-0.22578852414026274
-0.03626686053526107
-0.10638965106824373
-0.0775340669971224
-0.3175119080892156
0.046937368238694877
-0.20316498403070476
0.04184118419547023
0.25445184354671646
0.1434527155211224
0.433812329872049
0.28214167635163023
0.2953621408611604
1.2520013640771765
0.24945905811657898
0.21266889314353246
0.14809680175838486
0.0003098076833596693
0.11835224738666078
-0.018301812336153887
0.20588504426595547
-0.13471592689750211
0.04192747413936381
-0.046734228687550824
-0.08170316213386715
0.13234400981121897
-0.11049725531435617
-0.11457490529849157
0.29970795759706637
0.1572386029997504
-0.12571369169629856
0.040775981805307816
-0.08627631150205185
-0.14887980322740144
-0.13697625944189196
0.12326968753002611
-0.25336209873408094
0.0036214696985554123
0.025075468556264174
-0.1716378665275302
-0.35738095845905576
-0.048400019244107535
-0.3093909416283628
0.1002120208891075
-0.04776246238785034
0.2680809739075486
0.1078194143172406
-0.18430457411517748
0.30044695131900984
-0.032198274855424404
0.08606421925628109
-0.0009181118611589896
-0.07964360112615443
-0.1262046124612107
-0.05123471448063332
-0.0396129919547174
-0.0026518951345786117
-0.08858880172175494
-0.21148704718984945
-0.019905846512803492
0.2922253218860118
-0.04276556837592311
-0.08826441363872876
0.12294882217185273
-0.282671891273152
0.06730424157312627
-0.006992209987405421
0.5785849548128641
-0.10060523595718984
-0.11987948278558877
0.019158511721684594
-0.030227747362465543
-0.30157497789767285
0.06300218630393828
-0.11911535618552144
-0.1323708815743368
-0.3500177153281971
-0.2187236282529534
-0.0377805800253268
-0.058580245234682235
-0.27217681735669713
-0.08934631940526201
-0.11368232791823353
-0.21912184833172152
-0.4455621044947533
0.46560964634678914
0.18870536857513887
0.24708565557085288
-0.04256422966313586
-0.04832079206328333
-0.3598885073775168
0.12095894995035088
0.08825903985727211
-0.048719668072384315
-0.004886252293040142
-0.17379909641379415
0.7638063500142566
0.038261050979073334
-0.5061002286205821
-0.23057749187760965
-0.22761631807422364
0.11351762544607301
-0.2023497362702659
-0.11970720556621055
0.23762915457368486
0.05538681620854255
-0.274794184892653
-0.2827926422360633
-0.12889263607425816
0.33024819543696826
-0.021425312733545525
0.10062133460566434
-0.27218866675317155
-0.10616114276596253
0.11155812534576004
-0.32225511843438287
-0.14982037100440782
-0.11259423527224252
-0.40938648220287344
0.24966704685979405
-0.08407332593900893
-0.07675454840577295
-0.10808819699903928
-0.07987845830610046
0.007782371737257255
-0.026753401556943304
0.09680091770103816
-0.03460203879398474
0.21817768773700758
-0.06008992219803231
-0.03902673552655783
-0.045824016986160114
0.2545661856685346
-0.1321456126832569
-0.005159126958159113
-0.05002583426886155
-0.06256139263908385
-0.22660380063499436
-0.2697236185118352
-0.21620328789729196
-0.27894613039386407
-0.07969247653886864
0.08089028003211278
-0.2478783709508922
1.4446177392852955
0.6085104392528041
-0.11741691127782503
0.11436843525900432
0.18150008476996676
0.43096521958889866
-0.10082766252766484
-0.02475506809407731
-0.00991887934747273
-0.010951305026744611
-0.19717295804284427
-0.1008223336063583
-0.1731898044283054
-0.12183792226895797
-0.13199231707967854
-0.13458685756099978
0.5899759694642225
0.1850916067674531
0.6983839989581851
0.04026678000379798
0.747058881045938
0.4210246870546944
-0.1747346005900816
0.02317300615585988
-0.13150845988943582
-0.18877205838830544
-0.3821329733627002
0.030643765031219405
0.16303714986034346
-0.1271319143167024
-0.5088523493511643
0.45483878983306697
0.018627780286167215
0.06528280497539894
0.030185675703243497
-0.05533518535162649
-0.016374711253461873
0.02526229999525114
0.047956805898483945
-0.10145800910709472
-0.12274241063091526
-0.5109044164319679
-0.031901619473007146
0.0672084183455847
-0.3220733623891445
-0.2711725351049759
0.03319124120488362
-0.15756624459763283
-0.18107945650401663
-0.46257960480078136
-0.505738478784088
-0.6915508061320608
0.44270701465912765
-0.06094102716905902
-0.22618340646727317
-0.09836842261619189
-0.39977056896782853
0.018913186891335643
-0.012533846151880895
0.07507743473572083
-0.10436127393808947
0.42759552623207386
0.14904922788609795
0.01100145935617682
0.016905894084058688
0.36675896135842956
-0.20375844752086747
-0.03908985335014077
0.40057876252698366
0.024321683113472554
0.28080229226030173
-0.036490922346573106
0.06844076247849902
0.20103058518980385
0.0790443893236769
-0.18124850908247503
0.07616469940715363
-0.11856931439931523
0.18024290602071477
-0.1667185643230977
-0.10400623739346643
-0.17296270621862997
0.005400306260755675
-0.23457782792933216
-0.11945785695198806
-0.1189440875612039
-0.14219816023924653
-0.265574370505631
-0.006679973463627434
0.2463901380446555
-0.41166337239779943
-0.14361686570992277
-0.3981688365124716
-0.11280723165283627
0.05052912913721735
-0.030989098699806726
-0.39824538906942936
-0.3710238099308829
-0.5142529485212144
0.08333215237491474
-0.007608191203847137
0.05355143575054664
0.24361306223166615
1.6962842447120947
0.7684093223827725
0.030670827413817513
-0.12403570958196983
-0.002240117168548655
0.14000590224989498
-0.25661374560473826
-0.16340857141425835
0.1323825720614341
-0.09852307254037224
0.28756306571953655
-0.02001586081196703
-0.0554458731580134
-0.08890165490137966
0.2897716716179113
0.07500334447629928
0.13147118761410417
0.0008184899863974595
0.19583471007030434
-0.1596282600019498
0.07822335973898624
-0.2245796865803484
0.001652689465519539
-0.03813573269059917
0.06222049637651547
0.6210222539662783
-0.05001079206661024
0.00997452215159307
0.06071101810900971
-0.1430942095130259
0.15038893058498515
-0.08697504053636328
-0.03087514275036972
-0.00557496002118441
0.49808536629180616
0.2077931769838065
-0.010285142272962107
0.2623850808866414
-0.0073876426317269345
0.02289952475453892
0.023699123376392097
-0.3614809418408985
-0.0142548841873047
-0.6297522115827334
0.2078104562923032
-0.0037572328755931176
-0.023357954302777578
-0.1250522775300448
-0.13886711081651473
-0.022423247089156446
-0.008448627187286381
-0.0473169622622861
-0.041952998112037274
-0.22845552604800332
-0.0037175079955719184
0.1687170975386397
0.03523387971878182
0.052744002875635014
-0.045748959777647286
-0.05709252569828981
0.31126351847028466
0.042391738795762565
0.2322924977738413
0.1501676761904984
0.1905772868399803
-0.00917371579960342
0.2088805306088022
-0.11577766195743679
0.03403670578307953
-0.09657485908921379
-0.13529274440965938
0.21194995797746788
0.05781056141689859
-0.03026220851599145
0.06577987400366148
0.33445674217522
-0.16601614949262994
0.05761074442472712
-0.09842612689826162
-0.5150082960964972
-0.2699519101416202
-0.10843352867616361
0.06585330116780257
0.01956447391946645
0.1954850323647654
-0.039497331073963325
0.0008250207669473224
-0.2673614948939284
-0.3153600009958204
-0.217586238264613
-0.05314954885274486
-0.09489189985842347
-0.055851333028623086
-0.14571117814958007
-0.11593959760869982
0.0952118829345244
-0.11002241955729715
-0.20101447346189194
-0.11039391298161506
-0.031428163794068396
0.0021677482611739203
-0.10863940117858693
-0.14349935134632938
0.04313982298997891
0.005405434283106428
0.05666511113349198
-0.03514984217186527
0.23337804064682038
-0.4279229240614302
-0.027067806069733892
0.31199863237370146
-0.31138265323494124
-0.19455552043867164
0.1807029043131362
-0.10786319980070737
-0.004702346180574072
0.06119344080357397
-0.23873533697746593
0.24134600067070058
-0.2595287116309078
0.009453299153543532
-0.10697183564047584
-0.1236353711108765
-0.23345166128895214
-0.1389152477482115
-0.08742041036609202
-0.1049022290581158
0.10408429299992449
0.07923145702939405
-0.26636880256437284
-0.10564208567113814
-0.45544325855197143
-0.04412206864847795
-0.20285228000062316
-0.14146323034381414
-0.10972831482766945
0.007221377935892398
-0.10801610059579958
-0.14700928236399294
-0.018138387728196446
-0.020929127619445813
0.0133875005083514
-0.16949939835333244
-0.06890678104039784
0.1409242556974299
-0.06521864964065338
-0.027533962145906667
-0.15840542579210717
-0.048758241648777984
0.027725490887388227
0.11680255120283309
-0.040014029989813626
-0.10716685276232069
0.0970086757900282
-0.06389036858901678
-0.3164768796042498
-0.052036336970267306
0.06021856124929292
-0.4595240371466872
-0.16604328274792315
-0.13172546805614166
-0.1779258637862397
-0.04794000552852458
-0.2815409317234276
-0.1962019102846716
0.5467425986219847
0.06350933242866266
0.5373389295665965
-0.6224861150100565
-0.46100439052948927
-0.16137357599235572
-0.10737429046136421
-0.20657746298637258
-0.07806290141473189
0.03297623198194316
0.2061518647518169
-0.8264161155356092
-0.5668007020054723
-0.18621155360252412
-0.17278588153421612
-0.04617037582259139
-0.18033318247924374
-0.14157714694654866
-0.19069563775275442
-0.13545746102527711
0.01679409011985985
-0.1454826053244866
0.0687341417575046
0.036129500715399415
-0.003578838231229304
-0.0562096208419676
-0.21375129475982277
-0.009388927195586861
0.03032446633476959
-0.033684690710445414
-0.2264068089531638
-0.14154536514673527
0.06639323838808313
-0.10431394524590769
-0.1549823402679063
-0.41992416309143393
-0.1995290227200317
-0.25902438544883843
-0.36162842850431615
0.01669484113824485
0.3442269375894242
-0.1351520941674062
-0.08000114806370984
-0.03592599650424176
-0.05532590502966993
-0.16275800027745602
-0.11822741406939127
-0.03158268536676623
-0.05488850159023301
-0.07491791793570798
0.08951473469859175
0.009194726188327399
-0.0009332141938571632
0.05977022832895713
-0.010600892174127331
-0.2275052734346132
-0.12073833232485631
-0.3176275331027754
0.34480549931131504
-0.07243585462240673
-0.27758286954728634
0.3203009294866925
0.23745391433004703
0.010582017162471405
-0.11471252957464702
0.2772495748686343
0.13370469186731354
0.03813712416860446
-0.07164579528647438
0.11674587029260157
-0.08286242507790434
-0.12202801008138896
-0.10979965244456728
-0.37591310737289374
-0.4204670926895186
-0.24046867689054943
-0.3609985739305996
-0.0539441132437631
-0.06211728308044602
-0.1371852796368465
-0.05058063061017959
-0.12700782773363067
-0.19191983785148023
0.0615864105147043
-0.095308773109586
-0.16583442402842022
-0.03228037377925856
0.13834384915955356
0.039499454014902895
-0.0948019292404065
0.17986308532170595
-0.11001017565453909
-0.2556839400833329
0.1177354397116732
-0.11406369793533187
0.2075996559077517
0.12371745555910454
-0.18137009440812674
-0.11999421422705084
-0.07770859178489127
-0.0904777920972906
0.2700816701787305
0.7857087784038986
-0.24011451961506147
-0.16082272931195013
0.2998855021641974
0.17919638738899055
-0.07028594969519585
-0.111069481071563
-0.004045780721476371
0.017803524993970362
0.10734035370527202
-0.09512955543556753
0.05926039492042651
0.7873815220922461
0.29473023963146594
0.05376675815753384
-0.4491060929776804
-0.2989996403591529
0.02616412190056567
-0.06730034671420058
-0.05129344046259221
-0.06358426599913988
-0.14164392669195955
0.28404178358996135
-0.10270252772069786
2.262185630788757
0.5175280616593736
0.9962755482174173
-0.17976162522082903
-0.04376668372697855
0.7526812976122121
1.0496854857312383
0.1589014722344519
0.3763014734419734
0.15228839169159064
-0.020586342082638046
0.05025510712822622
-0.02021971141891104
0.07343186332059061
-0.00922689681778665
-0.044757266379815724
-0.03975582558134743
-0.13892558096524077
0.25684622585659295
0.8772808995672313
-0.5252664596164441
-0.3145030673994167
-0.06846985320952959
-0.1571343048021349
-0.5250323828830167
-0.3680126204941818
-0.40430776636814514
-0.010150378004499343
-0.2897194924361885
-0.01018273187400879
-0.10392973236289979
-0.09177078783775738
-0.11209454820707292
-0.04918271871897571
-0.0023400174773158507
0.39597292368770887
0.0883061196560389
-0.036081280277594406
0.16879653503922992
-0.012629429116677485
0.003486526046587827
0.018526505937658165
-0.12117008605361844
-0.27946764362729126
-0.060292961230937046
-0.07465189091379858
-0.08904480632148927
0.4153833893355317
0.36940226839975693
-0.0954979443402546
-0.16779092764395262
-0.13116099700569891
-0.15752512285496087
-0.10155599032811023
-0.051801457196927005
-0.04975735869304479
-0.1473314217765507
0.033479289777063485
0.18352330774239745
-0.3832468302938301
-0.18677009925368415
0.034187862623997
-0.2563106982095288
0.08756894743668431
-0.05337073300300041
-0.04657952472642002
0.1551665289298855
0.3452046075076662
0.14943772567955244
-0.08051577008213553
-0.0046564730642174685
-0.19022743178551962
0.12510683134228867
0.0481066273797297
-0.05903608714438015
0.09884483561817112
0.0669372768412848
0.01812659210026231
-0.04366715117650144
-0.0814919816477302
0.30000587173518267
-0.138667681249921
-0.13647562876239244
0.8879536720140911
0.7624512485041587
-0.03843032041319502
-0.1352823369890199
-0.13838018854866135
-0.25870723448226934
-0.09652772934507811
0.020801312580862475
-0.1588771986871542
-0.47776330553973634
0.010542656493115941
-0.04609443701725643
-0.16356359544970145
-0.24978430237307578
0.02024791227206981
-0.1376945684783649
-0.43959897887744903
-0.0881136603284079
-0.11227891058837874
0.020771339451550963
0.11714119794062013
0.8328903079292437
0.48126694198959713
0.15526002256518007
-0.0852814051607203
-0.12808056118296698
-0.13574097450584907
0.019162085541228422
-0.3955640539031028
0.06166167221592765
0.010964298406103743
-0.2032686168446805
0.20735327617950192
0.003556463707549777
-0.0491645493175872
-0.09349349699800527
-0.06957628590459788
0.09469430053611848
-0.22933271840514347
0.17708780754860054
-0.11452827022549263
-0.13063976366540578
0.24529826164067148
-0.09234581932851824
-0.29085313429928455
-0.031714089887008724
-0.07959424180539629
0.06213494578135134
0.445833908255935
1.4700711499468007
0.6745420377033369
-0.3092097560107336
-0.13037234900948708
-0.059150912147952886
0.10089199848859168
-0.02157389126842702
-0.02531653678259218
-0.0030400665043582584
-0.29284931188219987
-0.3487316415488549
-0.2052888236664056
0.043919246250013616
-0.17862126993351404
-0.10983670426563305
-0.07341951851149274
0.6515701131011469
0.13354602816474725
0.14470255408950963
-0.1725696841196823
-0.15432296346228783
0.2514146309076319
-0.28810021247219225
0.039217688251738346
-0.12949921891258032
0.13746843346231089
-0.14877410762857413
0.002557032310373162
-0.18547040426276518
-0.16737816715041423
0.040511655716282666
-0.2034263404292372
-0.639846911276924
-0.29971721861490797
-0.40201586911644477
-0.09734314526757079
-0.3780510232100868
-0.33134336992510227
-0.07385693099107009
0.18906731520659872
-0.12088742060546762
-0.1227822936181156
-0.21581275283278448
-0.0677209318552691
-0.24344314090125507
0.008457301981391866
0.0075153459782845095
0.10415492373595771
-0.24273584200679807
-0.2544492870807189
-0.15710372852974822
-0.4178907629789448
-0.16729099269973316
-0.08181031817802141
0.08658920475200121
0.14889342636227226
-0.005007064480582367
-0.046011524448114405
-0.22197392320751266
0.13808855330081501
-0.6024684047575478
-0.1202139065876727
0.3429937685042971
0.4043610575369382
-0.16934716704555378
-0.11029054762229391
-0.006053688764606376
-0.29389373303604766
-0.03512531055585635
0.00435631382846769
0.008537020973004484
-0.0679117104781557
-0.2240274116354034
-0.03851422188066279
-0.04997713772481545
0.04162301240880895
-0.20529058212614548
0.009328251154804637
0.21675717257999824
-0.08424403711768036
-0.16784601798011836
-0.14798701539966438
-0.03733510309627738
-0.029635748745650663
-0.14931488519353428
-0.04850816871816717
0.3149655313068584
0.2691290674141747
0.2575193559391485
0.07587705299364271
-0.09732639994207973
0.06460024455491056
0.08565286502082085
0.15203374045497225
0.20004890540374695
0.024668653991117197
-0.10645983549101287
0.02592075605904864
0.06098581949750463
0.020678143879641925
-0.1243505868370694
-0.12320938696335296
0.018576050172685654
-0.10317357673852068
-0.08619252620599438
-0.005194569789390987
-0.14037691720437775
-0.268940728904007
-0.14297072353506757
-0.3321000761895003
0.12963048896800655
0.23051796927257545
-0.043150364554715596
-0.03575524449782173
-0.058466978302067915
0.3842033931286743
-0.35674134777468985
-0.12804140910927717
-0.05594161267347443
-0.08936929232520836
-0.1625417976802329
-0.12131061984090492
-0.06978536144500638
-0.621433327410883
-0.17384127051649373
-0.1804531797451459
-0.04892288776244875
-0.006809199853756852
-0.003801632625589658
0.025641276368859548
0.02270871769461706
-0.684231925174316
-0.2631558799986871
0.21611178763799077
-0.11622236495153232
-0.0283243214217913
-0.055406930648025085
-0.11458891821762297
0.3009150041428786
-0.01700241765897006
-0.21408995427735186
0.010370477880946114
-0.23884534398632384
-0.1759753190394198
0.0020628448504783335
-0.27291462774753267
-0.20642935118454558
0.0651155597336953
0.4772231798635552
-0.01613673703066687
-0.22601191723224584
-0.10479215951088
0.05102555411011575
-0.07642686791653291
-0.07430909295159709
-0.07741268776178085
-0.1518008824347949
0.01846778095185787
-0.04159324725246446
-0.08204793937505807
-0.0063475661443509425
0.07125668908585019
-0.08844318330235115
0.05496247014104375
-0.543849213421198
-0.14919923641484467
-0.004817452651758639
-0.022065522669939296
-0.23232214276607038
-0.02829003164118567
-0.44669976070909584
-0.07541542917421312
0.03668160886160522
-0.14611028114175348
-0.17900809818869598
-0.14859557540365942
0.31925180950045373
-0.08278595069065281
0.1578979949220468
0.05160875637865376
-0.3125030461984783
-0.18150733847226516
-0.0675200334194963
0.1989963290304008
-0.06519640235121944
-0.023453292230707464
-0.13495711593421897
0.2134611565181906
-0.025008252327103776
-0.24925504129209494
-0.1300468122858993
0.0065297906430559025
-0.027999423961122098
-0.15605073171598213
0.08448109731022543
0.09919178385303656
-0.0650401299499667
0.004270802790757999
-0.15122854675870234
0.057909973734565044
0.15002977096312461
-0.03869895384267737
-0.04857260971340744
-0.17895779862322692
0.05684082322356697
-0.009367951748491608
0.03000550104215112
0.01624391599766446
-0.2707676518894357
-0.0765542689125588
-0.018820238139544202
-0.07127035935507581
-0.040194963037386906
-0.055568297808083075
0.026673711761362105
-0.07725131459717238
-0.1084142658086341
-0.06291172731174802
-0.12484659028814714
-0.09073126650585392
-0.06094297340995176
0.029873141300348276
-0.16355742035085669
0.035319341380018444
0.12908862543698832
-0.17918586822800808
-0.16117904474576522
0.07637437372206055
-0.04866548940840154
0.08308055070836687
-0.11828801704705236
-0.05063768703223714
-0.06460679856184137
0.14628314974545603
0.027890548688032615
0.09320790927866299
-0.07226599828244631
0.04964164820162391
0.0718053444424489
-0.27836221205199146
0.22980925318948425
0.07110134226368987
-0.05198723255519058
-0.24945758828609835
-0.02713156791806678
-0.03943712148267269
0.4362580802951094
-0.33751932157626485
-0.08720930120947869
-0.23292428398865767
-0.05485348458389354
-0.6207117499633339
0.13376822716691458
0.03405882545703005
-0.03880201957700076
-0.08683722191499213
0.1702173427808401
0.0014512130145082245
-0.1569522237702452
-0.10960266678410555
-0.30018895019257835
-0.08599810696073491
-0.36180019798600754
0.16777427363020994
0.12335092229347143
0.045228956231088926
-0.13519537808506013
-0.1270388420392403
-0.04102036779925186
0.24660353140998287
-0.10955923413677333
0.3257786603272472
-0.0469030345098028
-0.36768883004978603
-0.037321924587408434
-0.1286698943088119
-0.07913458293691582
0.042069946813046405
-0.27038403451150134
-0.20018434786056988
-0.0448930555497694
0.025373926809165018
-0.11847521577662425
0.023610271198228835
-0.14892633476018174
0.04492154259023964
-0.1889466729265305
-0.2595283082449855
0.2671464210015102
-0.07554731189600049
0.030758217802798034
-0.01720111372213913
-0.07120589238613613
-0.15736106920207651
0.10806714304404873
2.0058654757139807
-0.09899419117095663
-0.20713667379149078
-0.07596564785604643
-0.20642939428649812
-0.047190717962159026
-0.1903028816128762
0.010969157509968483
-0.36557963891078893
0.005949415040737481
0.17556986130447988
-0.041508159858841834
-0.0008780811393827471
-0.030711342883931073
0.20190177147402047
-0.28948334510947465
0.13094478315388228
0.12087666528579367
0.7507887294917274
0.1482557374428984
-0.13890881855930812
0.08252744389399808
0.21410835198537587
-0.0640056551447514
2.0269064795922493
0.23666927651537029
0.10755946275650394
0.18342046080640123
0.01705928719149249
-0.05128098137516953
0.0472289842223395
-0.1395797277877333
0.006305180200287459
0.22869914644924783
0.1994765347948548
0.24288983409333273
-0.1844967879093838
-0.10117057722300668
-0.07414456299646231
-0.2721158010864069
0.02037717327097548
0.016326028766195363
0.06755776762650176
-0.2692391329728029
-0.07279498177333542
-0.13927678019639145
0.05464092237034757
0.05951297675365735
-0.026325069066689185
-0.03934206055312304
0.03148163039891398
0.022219936598593906
0.11744609178403151
-0.2396216163479671
0.04285953744231947
0.19126867809898912
-0.1613446896161695
-0.09294121925170809
-0.021431877735765013
-0.42739686399498406
-0.09890140253158995
0.026269773509169616
0.14329230573669022
0.5101777881332952
0.07604728556056718
-0.2512545872956743
-0.01848207310733603
-0.38243965752833425
0.5003126737846542
-0.1919144912351681
0.06416700379702023
-0.06804350976044651
-0.2606362287825589
0.09294002373633514
-0.11301565911991994
0.18622581525940926
-0.025141805906675488
-0.04801798419021315
-0.03771248531030364
-0.06700075471336821
-0.3752395142131823
-0.4054789833787698
0.016494768029782725
-0.05534192937324043
-0.005997114743389981
0.09523542012056763
-0.023443837497769886
0.06236631458297856
-0.6823616093405956
0.06950565227589946
-0.004752644237124823
-0.01814382290184367
0.03965110476063062
-0.023954260276056863
-0.08505386165301834
-0.1188064137388567
0.07242654421104094
-0.07516782515348554
0.07921274059851872
-0.20140267762731223
-0.011992198613013092
-0.1931166028995787
0.6485555567037625
0.037080831397952804
1.0150839837334251
0.23031468179952158
0.08587709871215174
0.2608777790109604
-0.10477208828727616
-0.3328748879263111
0.03971696598818631
0.008098109512922252
1.3978550923532396
0.5851213615460696
0.036848327563091594
0.42997250106791285
0.2172248862995928
0.013928862778289832
0.09294441220209013
-0.48269700538519705
-0.05654354002913527
-0.2702242798770127
-0.18085807231328546
-0.07114288702010779
-0.07462361034817278
0.2716294452434714
-0.16728580437972318
-0.17142838990534034
0.15388692965030099
-0.09268603016556935
-0.11248145548060089
-0.017829096680427856
-0.3369069154757427
-0.08449312217800242
-0.1756905883664966
0.0010883666307824264
0.17056629042068813
-0.33776963483184264
-0.31909651103076253
-0.24820591634561193
0.03787063422651241
0.14165210376908163
-0.03172780196148731
-0.017438358405702598
0.12918861267844803
-0.1284020433083588
-0.31295056900162666
-0.1063839016464234
-0.20286539954765823
-0.07350356923534763
0.06036869183553598
-0.19536147872421256
-0.25930192052385687
-0.09727272173335512
-0.09001655527627443
-0.1594900953727466
-0.4276653909579626
-0.11443881299004473
0.10421041177636806
0.14765763682497318
-0.0729151253686259
-0.021939946236398968
0.09727983764464265
0.11939350197120346
0.1860335240245565
-0.17498416801892983
-0.25762569112149813
-0.06703133916466028
0.029399489382025426
0.05603485176449809
-0.09416613757171872
0.07819994318665589
-0.17180308170419212
0.15576000056769432
0.2516759117645633
-0.3092689547512992
0.48200489618522147
0.36628873104226944
-0.053052141275435956
0.5070239578981286
0.5125456029616107
-0.07199586979682371
-0.2886543800907869
0.10435286640707858
-0.24575859180253073
-0.050542929848759265
0.04340442088942819
-0.3794691525780035
0.08386223372077127
0.6266740702593248
0.15835013079837565
0.02869096945521657
-0.1525380789755821
-0.008260628792491833
-0.14908958917816084
-0.14714237644186764
-0.09853256118530158
-0.10225152014725612
-0.11145844020372553
-0.1925447119679867
-0.1978874486804514
0.07817991121169561
0.08171988384698424
0.08073313140427334
-0.08831106768218022
-0.19173704762233168
-0.2540142750001712
-0.11800169716534478
-0.030383968009816898
0.12425636850463989
-0.32798526804481704
-0.03521685054653403
-0.18583824725734885
0.015928611908192083
-0.06753933896821938
0.09951791796394287
-0.05873599157926631
-0.11556670988329126
0.12326810874734741
-0.04074374846199397
-0.3745859923515861
0.24116145365230582
-0.16360400140496387
0.04336831000235132
-0.1302691953955194
0.22870250121957272
0.04086459186911422
-0.12472130715567167
0.07029828391662167
-0.21193268784045893
-0.0864190105944781
-0.03504662329674425
-0.0437275553212779
0.13126745045048593
-0.06928165100839333
0.6015851605649237
0.18090311742962353
-0.11364350229819985
-0.1081051476261819
-0.1229117791687847
0.004639021193088051
-0.09714445916349637
-0.19870159864821293
-0.025954662382843524
-0.08000315372660637
-0.1581060125197016
-0.13562800589211157
-0.18206210823477997
0.18862137228893466
-0.2587933547021605
0.0016296236299863883
-0.3378047714765145
-0.1764901990022904
-0.020057236110955126
-0.08061304430361506
-0.1475152521709246
-0.019873343582369585
-0.0059497295545946636
-0.06240090886248505
-0.16640542732213745
-0.07676120269209762
-0.12296958467825608
-0.18434345605389946
0.041941758852015974
-0.024136782550213027
-0.15299055041188964
0.17870031507232584
-0.4352627918611026
-0.04366399819672229
-0.08207198606809912
0.179299924771913
-0.032872657028905274
-0.133573222125262
0.031658194328265075
0.0011680328457431299
-0.20606991316957693
0.8457809986403415
-0.11707710333726701
0.07775250014769215
-0.2016280995593658
-0.08333981431247184
0.3280754033360454
-0.099705697294787
0.044967271937904646
-0.14948999967984067
-0.1448807462697351
-0.22404341203192019
-0.03161303225262373
0.25917070403782566
-0.010273199538558299
-0.12693278187828225
0.1485901248019381
-0.1747312603961953
-0.26143443537080197
-0.14892831760663675
-0.08305293943543367
-0.036949274976918293
0.04947057509773779
-0.030044175891605723
-0.13753111360853998
-0.3671517858993559
0.00034746887259097894
-0.16301655749673485
-0.05707769225358322
0.05112059028510694
-0.002647439936038296
0.022958336043938096
-0.4292373706542176
0.023030077051385416
-0.06662595444196981
-0.1797973348985688
-0.10026147899496918
-0.06490852887165381
-0.18173192246544592
-0.061197230322624176
0.01407764985395957
0.07275157048881174
-0.23153611026583834
-0.09987702983905015
-0.1954401435678192
-0.006016628353739566
-0.014329056948066486
0.06615173711861802
